<?xml version="1.0"?>
<opencv_storage>
<opencv_ml_svm>
  <format>3</format>
  <svmType>C_SVC</svmType>
  <kernel>
    <type>LINEAR</type></kernel>
  <C>1.0000000000000000e-02</C>
  <term_criteria><epsilon>1.1920928955078125e-07</epsilon>
    <iterations>1000</iterations></term_criteria>
  <var_count>576</var_count>
  <class_count>2</class_count>
  <class_labels type_id="opencv-matrix">
    <rows>2</rows>
    <cols>1</cols>
    <dt>i</dt>
    <data>
      -1 1</data></class_labels>
  <sv_total>1</sv_total>
  <support_vectors>
    <_>
      8.12923163e-02 6.51876554e-02 8.20295289e-02 1.18428068e-02
      1.24832593e-01 1.41620226e-02 1.14536911e-01 6.44527152e-02
      8.49582553e-02 1.89450197e-02 3.77734751e-02 1.29777035e-02
      2.17550322e-02 1.39884837e-02 2.28649341e-02 9.40907598e-02
      6.34075329e-02 1.64400581e-02 3.05643436e-02 3.47496718e-02
      1.78270452e-02 1.16840722e-02 4.20615636e-02 1.14176068e-02
      1.07858129e-01 6.95329309e-02 2.97218487e-02 -5.05393893e-02
      -3.47241499e-02 -9.76671278e-02 1.69989672e-02 -1.14610277e-01
      2.24418864e-02 2.34534219e-02 3.08564082e-02 -4.96973060e-02
      2.79035028e-02 2.99675837e-02 2.22047288e-02 2.40994412e-02
      7.85766020e-02 2.71142833e-02 5.76412641e-02 3.33040841e-02
      1.69481859e-02 1.59681402e-02 2.50702277e-02 -6.77136984e-03
      3.49950008e-02 5.63553208e-03 1.96804646e-02 2.55858693e-02
      3.41033041e-02 8.53114063e-04 -2.38533076e-02 -1.90113131e-02
      -9.55512598e-02 2.17358842e-02 -5.14605418e-02 3.17294002e-02
      4.97582229e-03 -5.64192096e-03 -2.42522378e-02 -1.41453952e-01
      -5.78400008e-02 -1.74068958e-01 4.25644591e-02 -1.32331565e-01
      1.35002276e-02 -9.63414311e-02 -1.94990393e-02 -1.45468935e-01
      -1.30554764e-02 3.11141033e-02 3.75565849e-02 4.24701273e-02
      -3.67918401e-03 2.31971182e-02 -4.08378504e-02 -3.00413370e-03
      -3.15940157e-02 -1.80467532e-03 5.54987937e-02 1.03643909e-01
      3.97513099e-02 1.33426890e-01 3.01300045e-02 6.18521310e-02
      5.71187735e-02 -7.27870176e-03 -1.50675938e-01 -2.07107933e-03
      -7.41329268e-02 4.03948426e-02 -1.51883572e-01 6.59465604e-03
      -1.68675914e-01 -9.92060378e-02 -1.53039381e-01 -4.33615632e-02
      3.51261534e-02 1.51916519e-02 3.92863415e-02 -3.69600952e-02
      2.73133479e-02 -4.43793014e-02 1.26133731e-03 -5.32006398e-02
      7.74281565e-04 5.83382621e-02 1.01715393e-01 3.63651887e-02
      7.38154948e-02 2.10433491e-02 3.17560397e-02 3.29323076e-02
      -1.35659855e-02 8.46501663e-02 7.69023076e-02 1.57956228e-01
      3.43670659e-02 1.57272920e-01 3.02854776e-02 8.03157538e-02
      5.99633828e-02 7.47000352e-02 -8.13444853e-02 2.61626369e-03
      -4.28525265e-04 3.11979465e-02 -6.66549280e-02 9.70759522e-03
      -1.05811499e-01 -7.45586604e-02 -8.53525922e-02 4.97262739e-02
      6.04052022e-02 9.33852568e-02 2.38099974e-02 6.58182800e-02
      2.48894934e-02 4.34442461e-02 3.94088589e-02 3.99716720e-02
      4.86858711e-02 4.00933288e-02 4.38643843e-02 1.39990235e-02
      7.99281821e-02 1.31014036e-02 1.03934027e-01 6.71672001e-02
      4.14810292e-02 1.05919372e-02 7.81268929e-04 -5.90777397e-02
      2.24514846e-02 -1.04494311e-01 3.28339636e-02 3.40804309e-02
      4.68371622e-02 7.56740058e-03 5.47633208e-02 4.37930673e-02
      4.25265767e-02 1.17024863e-02 5.77247664e-02 9.25898273e-03
      7.96304792e-02 6.03579246e-02 4.90792803e-02 -4.86720502e-02
      -1.05002150e-02 -1.22937925e-01 2.17511170e-02 -2.17322871e-01
      2.53354702e-02 -3.14986408e-02 1.99590512e-02 -5.61973266e-02
      2.15579048e-02 5.73202502e-03 -3.74482349e-02 2.84550004e-02
      -3.46267559e-02 3.27195749e-02 -4.23419010e-03 1.49172246e-02
      2.31890995e-02 -3.87986563e-02 -1.74552854e-03 -1.07395150e-01
      3.47986147e-02 -1.09317474e-01 3.02236620e-02 -5.08330837e-02
      6.96354639e-03 -3.97372730e-02 9.90404561e-03 -7.21157249e-03
      -7.99221694e-02 3.37848328e-02 -1.26206398e-01 3.47166136e-02
      -3.30668055e-02 8.53249338e-03 1.13797123e-02 -7.05993325e-02
      -3.94615568e-02 -1.70607343e-01 3.23617533e-02 -1.08696274e-01
      3.25875990e-02 -1.01498760e-01 -1.83904059e-02 -7.42426515e-02
      -5.42986467e-02 7.47267623e-03 -3.99373360e-02 3.34312283e-02
      -1.27824783e-01 1.82951465e-02 -9.35112834e-02 -2.33868565e-02
      -5.94832115e-02 2.09885016e-02 3.65557298e-02 3.67630012e-02
      4.09288667e-02 -4.84339483e-02 2.46093608e-02 -2.75072567e-02
      1.50381392e-02 9.71958321e-03 -6.29236102e-02 -1.81888714e-02
      -1.06556349e-01 2.56622396e-02 -1.64926648e-01 2.08236184e-02
      -1.10618718e-01 -4.70187925e-02 -7.02375025e-02 2.46381201e-02
      2.85182688e-02 2.27751955e-02 4.34011258e-02 -9.08380151e-02
      3.46675925e-02 -1.35185104e-02 1.98755432e-02 2.18250845e-02
      3.04898284e-02 2.46881545e-02 1.83319561e-02 3.61851193e-02
      -6.21104389e-02 2.06244681e-02 -4.27534916e-02 -2.01159710e-04
      2.55830120e-02 8.05829987e-02 4.06112522e-02 5.58813363e-02
      1.58813614e-02 4.70086038e-02 2.40177717e-02 6.09110855e-02
      4.81730364e-02 8.37675929e-02 3.44066285e-02 1.72657124e-03
      -1.60514880e-02 2.98190638e-02 -1.17778435e-01 3.41842547e-02
      -1.42996050e-02 7.44598219e-03 3.66847813e-02 1.14362702e-01
      5.70454225e-02 7.97871277e-02 2.83032451e-02 5.60987042e-03
      2.78644133e-02 7.60984197e-02 4.56662439e-02 1.15120701e-01
      2.55390778e-02 3.57363001e-02 4.43029776e-02 1.01036513e-02
      6.73020557e-02 1.17696198e-02 7.25283250e-02 4.42306474e-02
      1.67104732e-02 -3.25112343e-02 4.44698054e-03 -7.40039200e-02
      1.44953290e-02 -1.98260471e-01 3.13989520e-02 -2.70013828e-02
      1.17865456e-02 -3.50685678e-02 6.39302470e-03 4.32847850e-02
      5.39240688e-02 1.39148235e-02 8.69754553e-02 2.33362019e-02
      6.10139184e-02 5.74136972e-02 4.44496330e-03 -7.24993320e-03
      1.89955961e-02 -2.19284650e-02 2.07439680e-02 -1.05112247e-01
      2.73440685e-02 1.32346125e-02 3.59945223e-02 -1.72876511e-02
      2.32930146e-02 9.31838434e-03 -4.46093269e-02 3.27497162e-02
      -1.25087351e-01 3.24079171e-02 -2.44554952e-02 1.51824187e-02
      1.95411351e-02 -3.37954387e-02 -5.39482757e-02 -1.36122659e-01
      2.33819988e-02 -1.31975472e-01 4.42224033e-02 -7.61587322e-02
      -3.10776867e-02 -3.17308083e-02 3.58027481e-02 1.18388431e-02
      -6.04744628e-03 3.63342278e-02 -8.54500160e-02 3.83204147e-02
      1.29759836e-03 3.03595178e-02 3.07744611e-02 -1.34269642e-02
      -1.56866703e-02 -9.86948311e-02 4.31867465e-02 -7.94659108e-02
      4.70267758e-02 -6.53450415e-02 9.02924128e-03 -2.03451794e-02
      -4.38898280e-02 -2.61410307e-02 -1.10171527e-01 2.05017682e-02
      -1.73497081e-01 2.80415919e-02 -8.93585235e-02 -1.64391287e-02
      -4.14788984e-02 1.30920578e-02 2.36615762e-02 1.29684377e-02
      3.97188254e-02 -1.07750870e-01 3.97977680e-02 1.38682136e-02
      3.04628238e-02 1.41728250e-02 -2.50510331e-02 -1.64858513e-02
      -7.82457814e-02 3.46684493e-02 -1.48948193e-01 3.53474282e-02
      -8.99610110e-03 2.73327418e-02 -2.44254209e-02 3.35612036e-02
      3.33520435e-02 3.67118195e-02 4.32574041e-02 -6.94258064e-02
      3.46801132e-02 4.24072668e-02 4.85969186e-02 2.78291218e-02
      4.78133038e-02 8.14291928e-03 -1.99533328e-02 3.67371328e-02
      -1.58229977e-01 3.56563106e-02 2.31366064e-02 2.33454984e-02
      4.73642647e-02 1.20330893e-01 6.86482191e-02 1.06313728e-01
      3.70027013e-02 -3.83933559e-02 2.45656800e-02 8.66477564e-02
      4.88800369e-02 1.19070143e-01 5.30994684e-02 1.46740936e-02
      1.31090349e-02 5.00634611e-02 -1.19639754e-01 3.86920981e-02
      3.41271050e-02 3.65933701e-02 4.92700078e-02 1.13570012e-01
      7.15247318e-02 1.07388504e-01 5.33750840e-02 2.97299761e-04
      2.70468071e-02 6.27382025e-02 4.21975888e-02 1.10130310e-01
      -2.27181371e-02 3.89059819e-02 5.41465916e-02 1.33601800e-02
      9.52092856e-02 2.25377232e-02 2.55809333e-02 2.89672259e-02
      -2.74910629e-02 -7.31203929e-02 -3.44625227e-02 -6.27314448e-02
      5.52405603e-03 -1.07794605e-01 2.31534410e-02 -5.68162799e-02
      -3.41940112e-02 -6.79600611e-02 6.40287772e-02 5.97378798e-02
      1.10831730e-01 2.69982368e-02 1.94099560e-01 2.67032403e-02
      1.17373921e-01 7.69338980e-02 6.55462369e-02 2.74124704e-02
      5.20231239e-02 6.14157282e-02 7.53610069e-03 3.43984589e-02
      3.08241900e-02 2.89016291e-02 5.09185083e-02 3.70857790e-02
      -2.97236685e-02 -1.46727161e-02 -4.15129364e-02 2.51021329e-02
      -7.21110031e-02 2.49162000e-02 -2.79265642e-02 2.28263647e-03
      -3.17807049e-02 -1.41132221e-01 -7.55104199e-02 -1.22051917e-01
      2.43201125e-02 -1.38342679e-01 4.19549942e-02 -9.70317945e-02
      -4.81754802e-02 -1.42082989e-01 5.05118705e-02 4.27034386e-02
      6.06980398e-02 2.49155574e-02 5.98310791e-02 3.61657068e-02
      6.15088716e-02 6.30652308e-02 4.92021702e-02 2.21363902e-02
      1.93135496e-02 1.83781404e-02 3.56243812e-02 3.69667858e-02
      4.97720689e-02 4.41959314e-02 4.96982895e-02 2.20483933e-02
      -1.27567396e-01 -7.40177110e-02 -1.23277470e-01 3.40871587e-02
      -1.51689157e-01 2.61254534e-02 -5.35208695e-02 -4.12827404e-03
      -1.28359079e-01 -2.31981203e-02 2.11743731e-03 -2.37747584e-03
      3.89267355e-02 -9.70206335e-02 2.47253533e-02 1.14201829e-02
      7.65242567e-03 -1.95933133e-02 4.30634152e-03 8.76102538e-04
      -9.46363341e-03 3.96793447e-02 -1.98664051e-02 4.93130423e-02
      7.38347843e-02 6.03345782e-02 1.04051847e-02 4.44645993e-02
      5.53345568e-02 8.88661295e-02 4.75353785e-02 6.37944192e-02
      3.61207277e-02 1.25958771e-01 7.96754807e-02 5.09254411e-02
      -8.58257338e-03 -8.85661878e-03 -1.81410573e-02 4.85656261e-02
      -1.02658778e-01 2.46000346e-02 -1.61137816e-03 3.09342123e-03
      -6.61311345e-03 4.35650609e-02 3.45519185e-02 5.60418479e-02
      4.74014543e-02 -1.14836246e-02 1.53528294e-02 4.49653566e-02
      3.48002836e-02 3.96520421e-02 5.86332530e-02 3.83298770e-02
      4.96167578e-02 5.24920747e-02 1.11591667e-02 4.22418602e-02
      1.13005258e-01 7.61766657e-02 6.70896545e-02 9.60892364e-02
      6.39494732e-02 1.03532694e-01 3.33781764e-02 1.14698350e-01
      2.51276456e-02 1.56036451e-01 8.79120901e-02 9.72196683e-02</_></support_vectors>
  <uncompressed_sv_total>358</uncompressed_sv_total>
  <uncompressed_support_vectors>
    <_>
      1.25764728e-01 4.47045565e-02 1.26827642e-01 5.95737307e-04
      2.86160260e-01 1.31902769e-02 9.89176258e-02 4.03664559e-02
      1.50457665e-01 1.36170298e-01 6.00462146e-02 1.45028144e-01
      9.09523200e-03 2.86160260e-01 1.62432157e-02 2.45681524e-01
      8.51211026e-02 2.00791657e-01 1.75118342e-01 7.75353983e-02
      2.31171787e-01 4.48139850e-03 2.86160260e-01 1.12514663e-03
      2.86160260e-01 1.19899414e-01 1.39227256e-01 2.15786994e-01
      1.44616947e-01 2.86160260e-01 2.01915335e-02 2.86160260e-01
      4.87563526e-03 2.46786639e-01 1.03262775e-01 1.51200786e-01
      1.33662909e-01 5.81318624e-02 1.66962609e-01 9.56852734e-03
      3.17528069e-01 2.56739575e-02 2.96984017e-01 1.10840872e-01
      1.59872860e-01 9.82737988e-02 1.18069090e-02 4.31245677e-02
      1.40099041e-03 3.17528069e-01 3.04031186e-02 2.16721728e-01
      1.04559831e-01 1.02757089e-01 1.13175236e-01 1.23101920e-01
      2.97303945e-01 9.26297717e-03 3.17528069e-01 1.77927278e-02
      2.20241085e-01 1.03865206e-01 1.05506152e-01 7.43215755e-02
      1.94142293e-02 5.54349981e-02 3.23305459e-04 3.17528069e-01
      4.42410298e-02 3.17528069e-01 1.74557030e-01 8.46467912e-02
      7.64861777e-02 0. 0. 0. 4.69130367e-01 2.99505312e-02
      2.61043221e-01 1.30878106e-01 8.22611004e-02 1.57808920e-03 0. 0.
      0. 3.35973408e-03 0. 9.53853014e-04 3.18760925e-04 1.57808920e-03
      1.46517277e-01 0. 0. 0. 4.69130367e-01 7.00575784e-02
      4.69130367e-01 3.92203927e-01 1.67425141e-01 6.83838595e-03 0. 0.
      0. 1.66458920e-01 0. 1.43077960e-02 4.78141382e-03 6.83838595e-03
      0. 0. 0. 0. 0. 0. 0. 0. 0. 0. 0. 0. 0. 0. 0. 0. 0. 0. 0. 0. 0. 0.
      0. 0. 0. 0. 0. 0. 0. 0. 0. 0. 0. 0. 0. 0. 2.39760712e-01
      4.99035753e-02 1.56585813e-01 3.27669922e-03 1.86265171e-01
      1.14894460e-03 2.39760712e-01 8.46163556e-02 2.27673560e-01
      2.39760712e-01 1.15269907e-01 2.39760712e-01 1.16558233e-02
      2.19443411e-01 4.97876015e-03 2.12544605e-01 8.36978555e-02
      2.06793606e-01 2.39760712e-01 5.03387041e-02 1.41918510e-01
      7.74180703e-03 1.46720946e-01 1.52061963e-02 2.39760712e-01
      8.93619284e-02 2.39760712e-01 1.59625158e-01 1.44290313e-01
      2.39760712e-01 1.08503085e-02 2.39760712e-01 1.17183756e-02
      2.39760712e-01 1.40682131e-01 1.63303599e-01 1.06412448e-01
      1.04706198e-01 2.18684107e-01 8.54873378e-03 3.20404947e-01
      4.98318067e-03 1.35083005e-01 6.32106140e-02 1.06537543e-01
      3.68214920e-02 1.30363759e-02 2.62466278e-02 1.18288398e-03
      3.27844530e-01 1.14417262e-02 1.19389907e-01 6.48842379e-02
      3.87655236e-02 8.60644802e-02 1.89992860e-01 3.27844530e-01
      2.03769561e-02 3.27844530e-01 1.55231124e-03 3.27844530e-01
      1.60905614e-01 7.37731531e-02 4.22058441e-02 1.35043621e-01
      2.73417205e-01 2.65149605e-02 3.27844530e-01 0. 2.29803681e-01
      7.63563812e-02 3.41617316e-02 3.45475264e-02 0. 0. 0.
      6.16968572e-01 1.43549852e-02 1.75832167e-01 1.12124287e-01
      4.10459340e-02 1.55673549e-03 0. 0. 0. 2.02557459e-01 0.
      5.37008466e-03 1.79458817e-03 1.55673549e-03 4.95372191e-02
      1.56346068e-01 2.50923723e-01 2.31547691e-02 6.16968572e-01 0.
      5.43349050e-02 1.81577783e-02 4.09282222e-02 2.19534873e-03
      2.37744092e-03 7.11420923e-03 0. 2.22441122e-01 0. 0. 0.
      2.19534873e-03 0. 0. 0. 0. 0. 0. 0. 0. 0. 0. 0. 0. 0. 0. 0. 0. 0.
      0. 0. 0. 0. 0. 0. 0. 0. 0. 0. 0. 0. 0. 0. 0. 0. 0. 0. 0.
      1.67050332e-01 3.94561216e-02 9.59683284e-02 3.87584232e-03
      2.37823531e-01 2.14191601e-02 1.74288958e-01 5.84933273e-02
      1.98933318e-01 4.18928415e-02 9.60164145e-02 2.41759524e-01
      4.98800259e-03 3.49420846e-01 2.03033760e-02 2.96377540e-01
      9.98355299e-02 5.39940111e-02 3.21484596e-01 6.75918907e-02
      1.54880404e-01 4.04278934e-03 3.49420846e-01 8.30397103e-03
      1.48824379e-01 4.98354994e-02 3.25378716e-01 9.56984982e-02
      2.68243141e-02 6.96518198e-02 2.02161114e-04 3.49420846e-01
      1.01941628e-02 5.58943376e-02 1.90246087e-02 9.87272412e-02
      1.21567631e-02 1.01487137e-01 2.75945425e-01 1.05773900e-02
      4.30543572e-01 2.36648368e-03 2.76322693e-01 9.22848210e-02
      1.01575637e-02 1.95762403e-02 9.13577378e-02 2.07053348e-01
      2.53150314e-02 4.30543572e-01 0. 1.34226039e-01 4.47453484e-02
      1.62450485e-02 5.06343646e-03 1.60983559e-02 4.71919514e-02
      1.48473703e-03 4.30543572e-01 1.43762561e-03 4.73440662e-02
      1.60817001e-02 5.05048176e-03 7.55642448e-03 1.77401025e-02
      5.60911857e-02 5.31863607e-03 4.30543572e-01 0. 3.49155590e-02
      1.25704594e-02 7.36211240e-03 9.92789939e-02 2.52962053e-01
      4.65931803e-01 5.75610176e-02 5.71760356e-01 0. 8.30890164e-02
      2.77669113e-02 8.62984434e-02 5.45747206e-03 3.58468085e-03
      1.07267313e-02 0. 1.15100898e-01 0. 0. 0. 5.45747206e-03
      2.72889957e-02 4.02752087e-02 1.16151154e-01 1.32833114e-02
      5.71760356e-01 0. 2.80942656e-02 1.13716396e-02 2.64236238e-02
      1.25941669e-03 2.38978726e-04 7.15115457e-04 0. 2.51883338e-03 0.
      0. 0. 1.25941669e-03 0. 0. 0. 0. 0. 0. 0. 0. 0. 0. 0. 0. 0. 0. 0.
      0. 0. 0. 0. 0. 0. 0. 0. 0. 0. 0. 0. 0. 0. 0. 0. 0. 0. 0. 0. 0.
      3.40385526e-01 8.08741599e-02 1.47814304e-01 6.32580183e-03
      2.92522252e-01 0. 1.87367320e-01 6.26149625e-02 3.40385526e-01
      2.12143630e-01 5.57010584e-02 1.61659762e-01 0. 3.40385526e-01 0.
      1.83766261e-01 6.12188168e-02 2.12143630e-01 1.40023053e-01
      1.34716127e-02 1.79331712e-02 4.21720120e-04 7.87366554e-02 0.
      7.39273652e-02 2.47052833e-02 1.40023053e-01 1.43172264e-01
      6.52569607e-02 1.99033231e-01 0. 3.40385526e-01 0. 2.79829323e-01
      9.05241221e-02 1.43172264e-01 9.43880677e-02 6.73899651e-02
      2.02624768e-01 0. 4.21257347e-01 0. 2.09319264e-01 7.07112327e-02
      9.43880677e-02 7.83184022e-02 6.22504652e-02 1.86276942e-01 0.
      4.21257347e-01 0. 1.28370911e-01 4.58537266e-02 7.83184022e-02
      1.66752130e-01 8.73087868e-02 2.69828439e-01 0. 4.11738515e-01 0.
      2.50341296e-01 8.07760507e-02 1.66752130e-01 1.02596819e-01
      4.61367890e-02 1.38058782e-01 0. 1.87577829e-01 0. 7.95315951e-02
      2.65169367e-02 1.02596819e-01 1.05315454e-01 1.47749007e-01
      4.42121089e-01 0. 6.20904863e-01 0. 1.62397131e-01 6.50742427e-02
      1.05315454e-01 0. 0. 0. 0. 0. 0. 0. 0. 0. 1.02608494e-01
      9.12514254e-02 2.73058951e-01 0. 4.73721266e-01 0. 9.34538096e-02
      3.31109986e-02 1.02608494e-01 0. 0. 0. 0. 0. 0. 0. 0. 0. 0. 0. 0.
      0. 0. 0. 0. 0. 0. 0. 0. 0. 0. 0. 0. 0. 0. 0. 0. 0. 0. 0. 0. 0. 0.
      0. 0. 0. 0. 0. 0. 0. 0. 0. 0. 0.</_>
    <_>
      8.79402384e-02 8.43014102e-03 2.43408885e-02 0. 1.78312343e-02 0.
      3.65488371e-03 7.04634469e-03 8.79402384e-02 1.38956159e-01
      8.96764640e-03 1.35563919e-02 0. 2.06469744e-02 0. 2.78053917e-02
      1.19397761e-02 1.38956159e-01 3.15449536e-01 1.13805786e-01
      3.15449536e-01 0. 3.15449536e-01 2.78591812e-02 1.30438015e-01
      1.04166217e-01 3.15449536e-01 3.15449536e-01 1.43157706e-01
      2.70034969e-01 1.06069027e-02 2.71798223e-01 2.56552100e-02
      3.15449536e-01 1.84128672e-01 3.15449536e-01 9.14605856e-02
      8.61143973e-03 5.74990688e-03 0. 4.10935730e-02 0. 4.52989414e-02
      1.51381120e-02 9.14605856e-02 1.45812938e-03 0. 0. 0.
      2.73957150e-03 0. 8.27947108e-04 2.76685401e-04 1.45812938e-03
      3.42320889e-01 2.26193815e-01 3.42320889e-01 3.24136950e-02
      3.42320889e-01 4.01019678e-02 3.42320889e-01 3.39732945e-01
      3.42320889e-01 2.37909943e-01 2.23897416e-02 6.80203587e-02
      5.87221235e-03 1.79306969e-01 2.34581735e-02 2.48904750e-01
      7.80209452e-02 2.41030052e-01 0. 0. 0. 0. 0. 0. 0. 0. 0. 0. 0. 0.
      0. 0. 0. 0. 0. 0. 4.68648911e-01 0. 0. 0. 4.68648911e-01
      1.57263175e-01 4.68648911e-01 3.03414047e-01 4.68648911e-01 0. 0.
      0. 0. 0. 0. 0. 0. 0. 0. 0. 0. 0. 0. 0. 0. 0. 0. 0. 0. 0. 0. 0. 0.
      0. 0. 0. 0. 0. 0. 0. 0. 0. 0. 0. 0. 0. 0. 0. 0. 0. 0. 0. 0. 0.
      1.55856147e-01 5.65979853e-02 1.64949432e-01 2.32321137e-04
      2.89605439e-01 1.46475844e-02 7.52038732e-02 3.85002792e-02
      1.74503088e-01 1.99761212e-01 5.99891059e-02 1.31629556e-01
      6.65442739e-03 2.89605439e-01 1.95561182e-02 2.37847328e-01
      8.85456502e-02 2.83386767e-01 1.36700913e-01 7.31316805e-02
      2.17067450e-01 2.02217069e-03 2.89605439e-01 1.30599621e-03
      2.89605439e-01 9.89394933e-02 1.21539168e-01 1.63767442e-01
      9.77158919e-02 2.62706041e-01 1.64372306e-02 2.89605439e-01
      6.24610111e-03 2.36931011e-01 8.83087441e-02 1.17982969e-01
      1.39757171e-01 6.12205490e-02 1.58313245e-01 1.08087296e-02
      3.07979822e-01 2.14535967e-02 3.05220455e-01 1.06314175e-01
      1.85639113e-01 1.14941187e-01 1.70318671e-02 5.86640760e-02
      2.95256102e-03 3.07979822e-01 2.53973175e-02 2.06866249e-01
      9.33130533e-02 1.20105706e-01 1.24421306e-01 1.15442216e-01
      2.99455732e-01 1.29086375e-02 3.07979822e-01 1.43071292e-02
      2.15005249e-01 9.14964154e-02 1.08001225e-01 9.50012878e-02
      3.75879854e-02 1.06607497e-01 1.21137348e-03 3.07979822e-01
      5.01540489e-02 3.07979822e-01 1.75714836e-01 1.04813308e-01
      1.01274930e-01 4.62701777e-03 1.38458032e-02 0. 4.35640574e-01
      2.79728677e-02 2.48786300e-01 1.24373242e-01 1.06722899e-01
      1.39122130e-03 0. 0. 0. 1.43095599e-02 0. 7.89955666e-04
      2.63989321e-04 1.39122130e-03 1.75098374e-01 5.94902365e-03
      1.78017467e-02 0. 4.35640574e-01 1.01274602e-01 4.35640574e-01
      4.34220135e-01 1.97366714e-01 2.08683182e-02 0. 0. 0.
      2.31400073e-01 0. 4.73973453e-02 2.46900059e-02 2.18859054e-02 0.
      0. 0. 0. 0. 0. 0. 0. 0. 0. 0. 0. 0. 0. 0. 0. 0. 0. 0. 0. 0. 0. 0.
      0. 0. 0. 0. 0. 0. 0. 0. 0. 0. 0. 0. 0. 1.90450683e-01
      5.23012467e-02 1.59482390e-01 1.38365338e-03 2.34146759e-01
      3.21570493e-04 2.34146759e-01 8.51951987e-02 1.72692612e-01
      2.34146759e-01 1.06411316e-01 2.34146759e-01 1.28410216e-02
      2.29307786e-01 4.82355757e-03 2.34146759e-01 8.98080170e-02
      2.03715742e-01 2.34146759e-01 4.59248796e-02 1.43512443e-01
      5.65374736e-03 1.33205131e-01 7.31205288e-03 2.26862624e-01
      7.51233697e-02 2.34146759e-01 2.34146759e-01 1.12344660e-01
      2.34146759e-01 9.48992744e-03 2.34146759e-01 9.33289900e-03
      2.34146759e-01 1.18899487e-01 2.34146759e-01 1.40880108e-01
      1.28740951e-01 2.88053781e-01 1.16407694e-02 3.00958961e-01
      5.07757673e-03 1.49775237e-01 7.17296600e-02 1.27885878e-01
      4.91177365e-02 2.92678103e-02 6.05556443e-02 9.45694279e-04
      3.00958961e-01 1.86740700e-02 1.63698927e-01 8.82005841e-02
      5.54643571e-02 1.31486535e-01 1.76981360e-01 3.00958961e-01
      1.55954286e-02 2.97769845e-01 2.45060003e-03 3.00958961e-01
      1.38211161e-01 1.21981829e-01 5.27474470e-02 1.20458469e-01
      2.58125424e-01 2.13354770e-02 3.00958961e-01 0. 2.63933033e-01
      9.04424489e-02 4.42299321e-02 4.54342067e-02 4.27148072e-04
      1.27818994e-03 0. 5.34765422e-01 2.69875471e-02 2.46428534e-01
      1.51226610e-01 5.40352724e-02 6.71524648e-03 0. 0. 0.
      3.10994089e-01 0. 2.26728134e-02 1.22725172e-02 7.25512207e-03
      3.24168168e-02 9.87220407e-02 1.70672849e-01 1.78517643e-02
      5.34765422e-01 0. 7.86948726e-02 3.09941247e-02 2.76589356e-02
      3.84518760e-03 7.85762444e-03 1.43207870e-02 0. 4.32968289e-01 0.
      1.25731993e-03 7.33218330e-04 3.52799520e-03 0. 0. 0. 0. 0. 0. 0.
      0. 0. 0. 0. 0. 0. 0. 0. 0. 0. 0. 0. 0. 0. 0. 0. 0. 0. 0. 0. 0. 0.
      0. 0. 0. 0. 0. 0. 0. 2.11219281e-01 3.79916169e-02 1.03139751e-01
      4.44735726e-03 1.46766573e-01 1.70419160e-02 1.71736181e-01
      5.74467815e-02 2.56131142e-01 8.82387161e-02 1.01218969e-01
      2.45351776e-01 6.82485662e-03 3.19951743e-01 2.46680956e-02
      3.19951743e-01 1.13851808e-01 1.06525913e-01 2.90372968e-01
      7.75167122e-02 1.87922627e-01 7.76761910e-03 2.95372874e-01
      1.01367580e-02 1.96163192e-01 6.56334758e-02 2.98920006e-01
      1.28697544e-01 4.47836109e-02 1.09837815e-01 9.55560652e-04
      3.19951743e-01 1.93414558e-02 1.14230677e-01 3.88063602e-02
      1.37141556e-01 2.38029268e-02 1.10542446e-01 2.92857558e-01
      7.54476385e-03 4.06474590e-01 3.62947490e-03 3.01404119e-01
      1.00644670e-01 2.28880905e-02 2.06878986e-02 1.02497168e-01
      2.44230688e-01 2.52089947e-02 4.06474590e-01 0. 1.99780211e-01
      6.64630309e-02 1.69036873e-02 3.99512472e-03 2.64655724e-02
      7.09165558e-02 1.32276653e-03 4.06474590e-01 3.64347897e-03
      7.02584013e-02 2.37502772e-02 5.03834384e-03 3.55537795e-03
      2.46364549e-02 7.01458082e-02 9.78976209e-03 4.06474590e-01 0.
      4.41739298e-02 1.47614721e-02 3.01880296e-03 7.34269619e-02
      2.27559164e-01 4.40230250e-01 5.94442785e-02 5.54875314e-01 0.
      1.30537689e-01 4.36234437e-02 6.20770715e-02 1.30911572e-02
      1.77550595e-02 3.34365368e-02 0. 2.58345485e-01 0. 0. 0.
      1.23344986e-02 2.69144308e-02 6.16459846e-02 1.47488862e-01
      2.62047797e-02 5.54875314e-01 0. 3.14445458e-02 1.05082318e-02
      2.42952257e-02 5.78120491e-03 4.62107314e-03 9.28338803e-03 0.
      6.36615008e-02 0. 0. 0. 5.60659077e-03 0. 0. 0. 0. 0. 0. 0. 0. 0.
      0. 0. 0. 0. 0. 0. 0. 0. 0. 0. 0. 0. 0. 0. 0. 0. 0. 0. 0. 0. 0. 0.
      0. 0. 0. 0. 0.</_>
    <_>
      9.32873935e-02 4.68574576e-02 1.39141098e-01 2.44675903e-03
      2.56863564e-01 1.04253264e-02 2.00412616e-01 6.67782202e-02
      7.72351325e-02 1.12663738e-01 8.01615492e-02 2.06805065e-01
      1.06026232e-02 2.56863564e-01 5.10991644e-03 1.55253083e-01
      6.20329194e-02 8.19275454e-02 2.56863564e-01 6.69593140e-02
      2.09985986e-01 4.08310164e-03 2.56863564e-01 3.64038441e-03
      2.56863564e-01 1.12684801e-01 2.54503220e-01 2.56863564e-01
      1.50141343e-01 2.56863564e-01 1.55426385e-02 2.56863564e-01
      6.52888417e-03 2.56863564e-01 1.05860375e-01 2.56632477e-01
      1.13556959e-01 8.82799327e-02 2.24965215e-01 4.75282408e-03
      3.61930162e-01 7.43347593e-03 2.10022673e-01 7.89337605e-02
      1.14738099e-01 1.16944954e-01 1.84736494e-02 5.32908812e-02 0.
      3.61930162e-01 1.16984453e-02 3.01559448e-01 1.00442283e-01
      1.43059403e-01 1.27937675e-01 1.28203765e-01 2.69681364e-01
      9.09346156e-03 3.61930162e-01 4.22473392e-03 1.56874433e-01
      7.33100921e-02 1.30167842e-01 6.80024326e-02 1.53318588e-02
      3.08586098e-02 6.88312866e-04 3.61930162e-01 5.62483817e-03
      1.74042225e-01 5.83376661e-02 8.33336338e-02 1.28925458e-01 0. 0.
      0. 5.59374094e-01 1.02489442e-02 3.64037305e-01 1.21654935e-01
      1.60554811e-01 3.95563710e-03 0. 0. 0. 5.91136664e-02 0.
      6.72935601e-03 2.24883272e-03 3.95563710e-03 9.25428867e-02 0. 0.
      0. 5.59374094e-01 6.49557030e-03 2.73160607e-01 9.12855342e-02
      1.21238925e-01 3.07660690e-03 0. 0. 0. 2.62401193e-01 0.
      8.65202956e-03 2.89135636e-03 3.07660690e-03 0. 0. 0. 0. 0. 0. 0.
      0. 0. 0. 0. 0. 0. 0. 0. 0. 0. 0. 0. 0. 0. 0. 0. 0. 0. 0. 0. 0. 0.
      0. 0. 0. 0. 0. 0. 0. 2.63000101e-01 3.80747467e-02 1.16216771e-01
      5.31674316e-03 1.11423932e-01 6.28910167e-03 2.11869225e-01
      6.95973188e-02 2.63000101e-01 1.77552089e-01 1.05795600e-01
      2.63000101e-01 8.99495278e-03 2.00652152e-01 5.15906978e-03
      2.63000101e-01 9.57945809e-02 1.72422796e-01 2.19985381e-01
      4.94585894e-02 1.22611038e-01 5.87304495e-03 2.63000101e-01
      2.74159256e-02 2.34689698e-01 7.87095129e-02 2.63000101e-01
      6.31690398e-02 1.33768976e-01 2.63000101e-01 7.58894440e-03
      2.63000101e-01 2.56780759e-02 2.63000101e-01 1.37890235e-01
      7.83414841e-02 7.52302110e-02 1.07850350e-01 2.65592903e-01
      1.07924799e-02 2.11540952e-01 9.07842768e-04 2.45249540e-01
      8.46935138e-02 6.77960217e-02 4.10247445e-02 4.77526225e-02
      1.21079095e-01 6.63019344e-03 3.41971010e-01 0. 1.19086839e-01
      3.96260843e-02 3.35840173e-02 2.53475998e-02 1.42041132e-01
      3.41971010e-01 1.13453735e-02 3.41971010e-01 2.96586030e-03
      3.41971010e-01 1.30230814e-01 2.06896570e-02 5.65636344e-02
      9.58638340e-02 2.81353563e-01 1.64387096e-02 3.41971010e-01 0.
      1.89067274e-01 6.29544184e-02 4.27533016e-02 5.83144091e-02
      4.45910953e-02 1.28511697e-01 3.55589669e-03 5.94373286e-01 0.
      4.91080210e-02 1.64110474e-02 4.77591231e-02 1.12100609e-03
      1.45373342e-03 4.35012439e-03 0. 2.50903189e-01 0. 1.09334418e-03
      3.65376414e-04 1.12100609e-03 1.43903494e-01 1.17283821e-01
      3.60637218e-01 1.54088857e-02 5.94373286e-01 0. 6.05502017e-02
      2.02348307e-02 1.12886049e-01 4.85769333e-03 3.19821341e-03
      9.57027450e-03 0. 1.26179919e-01 0. 0. 0. 4.85769333e-03 0. 0. 0.
      0. 0. 0. 0. 0. 0. 0. 0. 0. 0. 0. 0. 0. 0. 0. 0. 0. 0. 0. 0. 0. 0.
      0. 0. 0. 0. 0. 0. 0. 0. 0. 0. 0. 2.29432836e-01 4.76558208e-02
      1.27324119e-01 6.19160477e-04 3.46006811e-01 1.33420127e-02
      1.32535771e-01 4.44622822e-02 2.39391774e-01 5.86915314e-02
      3.77260745e-02 9.32505801e-02 8.90000490e-04 3.56180608e-01
      1.52545571e-02 1.00266851e-01 3.40908989e-02 6.43587559e-02
      3.56180608e-01 5.55183850e-02 1.39157981e-01 1.59940333e-04
      2.54771709e-01 4.19967604e-04 1.57383382e-01 5.25948368e-02
      3.56180608e-01 1.61389574e-01 4.09489088e-02 9.38710421e-02
      2.39910511e-03 3.56180608e-01 2.46768771e-03 1.12901039e-01
      4.15201150e-02 1.61389574e-01 1.16817409e-03 3.05027515e-02
      8.79742131e-02 2.10853340e-03 4.72737521e-01 2.20965501e-03
      8.53245258e-02 2.96129789e-02 9.84817161e-04 1.23749282e-02
      2.40641311e-02 7.88957402e-02 4.89586312e-03 4.72737521e-01 0.
      4.27182168e-02 1.61483958e-02 9.62457433e-03 5.71871735e-02
      4.42747325e-02 1.23771809e-01 1.67126174e-03 4.72737521e-01
      6.63783960e-03 1.17416568e-01 5.40674925e-02 5.71871735e-02
      5.09944595e-02 4.67468873e-02 1.39884368e-01 0. 4.72737521e-01
      5.72741684e-03 7.52169564e-02 4.62187715e-02 5.09944595e-02
      8.00236464e-02 6.49347603e-02 2.10030019e-01 1.08815879e-02
      6.50264144e-01 0. 3.14830542e-02 1.38212973e-02 6.67380914e-02
      3.43045057e-03 1.36987609e-03 4.09919117e-03 0. 2.38110889e-02 0.
      0. 0. 3.43045057e-03 5.72858490e-02 8.55077729e-02 2.55871743e-01
      0. 6.50264144e-01 6.01408212e-03 6.14974871e-02 5.96749820e-02
      5.72858490e-02 0. 0. 0. 0. 0. 0. 0. 0. 0. 0. 0. 0. 0. 0. 0. 0. 0.
      0. 0. 0. 0. 0. 0. 0. 0. 0. 0. 0. 0. 0. 0. 0. 0. 0. 0. 0. 0. 0. 0.
      0. 0. 0. 0. 0. 0. 3.19811642e-01 4.40366343e-02 7.40452111e-02
      1.21607783e-03 2.23761871e-01 0. 2.13589653e-01 7.13780820e-02
      3.19811642e-01 3.19811642e-01 1.48333773e-01 3.19811642e-01
      1.82411689e-02 3.19811642e-01 1.46571482e-02 3.19811642e-01
      1.89795256e-01 3.19811642e-01 2.25350112e-02 4.06167377e-03
      4.92641656e-03 5.52762649e-04 3.17639671e-02 0. 2.92614549e-02
      9.77868773e-03 2.25350112e-02 1.13655299e-01 4.89508882e-02
      1.45609751e-01 8.29144008e-03 1.37152344e-01 6.66233990e-03
      1.97115704e-01 6.19491041e-02 1.13655299e-01 2.97961622e-01
      1.67786866e-01 3.22047800e-01 1.18664894e-02 3.22047800e-01
      2.70564668e-02 3.22047800e-01 1.74754903e-01 2.97961622e-01
      2.08540931e-01 1.11207716e-01 3.22047800e-01 0. 3.22047800e-01
      1.56228449e-02 1.58193335e-01 8.34308714e-02 2.08540931e-01
      1.38394788e-01 5.17255403e-02 1.65399715e-01 5.39385900e-03
      1.12558916e-01 7.90141243e-03 1.29581228e-01 4.30615880e-02
      1.38394788e-01 5.75276688e-02 1.31676057e-02 3.94024961e-02 0.
      3.62143591e-02 1.44803314e-03 9.37884394e-03 3.72617855e-03
      5.75276688e-02 3.21897984e-01 3.21033627e-01 5.40251613e-01 0.
      5.40251613e-01 2.87647378e-02 2.36853674e-01 1.73115566e-01
      3.21897984e-01 0. 0. 0. 0. 0. 0. 0. 0. 0. 5.08555025e-02
      1.90767478e-02 5.70849031e-02 0. 6.90577775e-02 1.91764906e-03
      9.90353338e-03 0. 5.08555025e-02 0. 0. 0. 0. 0. 0. 0. 0. 0. 0. 0.
      0. 0. 0. 0. 0. 0. 0. 0. 0. 0. 0. 0. 0. 0. 0. 0. 0. 0. 0. 0. 0. 0.
      0. 0. 0. 0. 0. 0. 0. 0. 0. 0. 0. 0.</_>
    <_>
      0. 0. 0. 0. 0. 0. 0. 0. 0. 8.37156996e-02 3.24009173e-02
      9.69555229e-02 0. 2.41752952e-01 0. 0. 0. 8.37156996e-02 0. 0. 0.
      0. 0. 0. 0. 0. 0. 1.84174553e-01 1.40403986e-01 4.20140624e-01 0.
      8.03119957e-01 0. 0. 0. 1.84174553e-01 3.34221385e-02
      2.84785219e-02 8.52183476e-02 2.09501176e-03 2.03044251e-01 0. 0.
      0. 3.04957926e-02 1.69092432e-01 1.23097949e-01 3.67474943e-01
      6.40331767e-03 3.76055926e-01 0. 1.15012579e-01 3.84352729e-02
      1.53673261e-01 5.05718961e-02 5.16712517e-02 1.54619709e-01
      4.35690815e-03 3.76055926e-01 0. 6.47313427e-03 2.13593920e-03
      4.55156714e-02 2.28060350e-01 1.35125473e-01 3.76055926e-01
      7.28798099e-03 3.76055926e-01 0. 1.13588825e-01 3.75504233e-02
      2.14864075e-01 1.01546742e-01 6.33231178e-02 1.88031539e-01
      1.43112009e-03 2.67374873e-01 0. 1.93338081e-01 6.46102950e-02
      9.21566337e-02 1.05422065e-01 5.63179962e-02 1.53221786e-01
      8.67525954e-03 2.67374873e-01 3.98409506e-03 1.79873630e-01
      6.39932826e-02 7.28339106e-02 2.19606295e-01 6.78592622e-02
      2.09046409e-01 1.72002404e-03 2.67374873e-01 0. 2.67374873e-01
      9.11198109e-02 2.07542717e-01 2.67374873e-01 1.10715896e-01
      2.67374873e-01 1.19602252e-02 2.67374873e-01 5.09043457e-03
      2.67374873e-01 1.19375974e-01 2.67374873e-01 1.10195443e-01
      9.48235616e-02 2.40682930e-01 1.24762291e-02 3.09600323e-01
      9.49900504e-03 1.64223313e-01 6.73932210e-02 8.93000215e-02
      9.49413851e-02 5.14539257e-02 1.40989095e-01 2.44070799e-03
      3.09600323e-01 4.01365086e-02 3.00475806e-01 1.48746923e-01
      1.02539696e-01 2.32603386e-01 1.62769765e-01 3.09600323e-01
      1.59178451e-02 3.09600323e-01 6.28934940e-03 2.07290262e-01
      9.00477841e-02 2.05690324e-01 6.87083080e-02 6.32194355e-02
      1.25497743e-01 2.93126260e-03 3.09600323e-01 1.59566253e-02
      1.74007133e-01 8.67086202e-02 7.72235021e-02 0. 0. 0. 0. 0. 0. 0.
      0. 0. 1.55377649e-02 1.95292495e-02 5.84387369e-02 0.
      7.00033724e-01 0. 0. 0. 1.55377649e-02 0. 0. 0. 0. 0. 0. 0. 0. 0.
      2.33249497e-02 0. 0. 0. 7.00033724e-01 0. 8.24118331e-02
      2.75406577e-02 2.33249497e-02 2.61472743e-02 2.15363298e-02
      6.44447803e-02 1.11250335e-03 3.32719833e-01 0. 3.15479115e-02
      1.07043162e-02 2.52790134e-02 2.43458182e-01 8.43899772e-02
      2.52631187e-01 1.43036118e-03 3.32719833e-01 0. 1.35821000e-01
      4.50526588e-02 2.73343563e-01 4.05791774e-02 2.77952161e-02
      8.36337060e-02 7.25490926e-03 3.32719833e-01 0. 8.30723941e-02
      2.80184299e-02 4.05791774e-02 2.36290053e-01 1.07520223e-01
      3.10072929e-01 1.17614195e-02 3.32719833e-01 0. 2.36264050e-01
      7.92632028e-02 2.77170062e-01 2.50828415e-01 4.35759090e-02
      1.38102591e-01 3.43518751e-03 1.81308523e-01 4.24842397e-03
      1.70516834e-01 5.66143133e-02 2.50828415e-01 2.50828415e-01
      7.69355446e-02 2.15158746e-01 8.45206901e-03 1.81462333e-01
      7.88883492e-03 2.50828415e-01 9.93693843e-02 2.50828415e-01
      2.50828415e-01 5.26201949e-02 1.52685449e-01 5.24233887e-03
      1.98903069e-01 1.52193280e-02 1.90948859e-01 6.36886060e-02
      2.50828415e-01 1.46907181e-01 1.03342570e-01 2.44436204e-01
      8.68603215e-03 2.50828415e-01 3.90504375e-02 2.50828415e-01
      1.30723804e-01 1.81203946e-01 1.10458694e-01 1.06366605e-01
      2.68953472e-01 9.11436044e-03 1.72458321e-01 2.61560478e-03
      2.41801932e-01 8.25725421e-02 1.03649154e-01 4.32767123e-02
      8.51588696e-02 1.91231221e-01 1.28218271e-02 3.01465362e-01
      1.06979751e-04 1.98406607e-01 6.93464950e-02 3.71592492e-02
      2.95390021e-02 1.34566084e-01 3.01465362e-01 6.81909407e-03
      3.01465362e-01 1.10288048e-02 3.01465362e-01 1.25551000e-01
      3.24635580e-02 2.44919322e-02 1.37031063e-01 3.01465362e-01
      3.00421230e-02 3.01465362e-01 0. 3.01465362e-01 1.05073668e-01
      2.01504081e-02 0. 0. 0. 0. 0. 0. 0. 0. 0. 2.07437798e-01 0. 0. 0.
      7.70749569e-01 0. 4.44538653e-01 1.48557410e-01 2.07437798e-01 0.
      0. 0. 0. 0. 0. 0. 0. 0. 9.42899063e-02 0. 0. 0. 2.51052648e-01 0.
      1.02585852e-01 3.42824757e-02 9.42899063e-02 5.14149964e-02
      4.28454876e-02 9.63052362e-02 2.07245052e-02 2.90356636e-01 0.
      1.85437664e-01 6.20357022e-02 5.14149964e-02 2.38465533e-01
      2.04635799e-01 2.90356636e-01 5.24931699e-02 2.90356636e-01 0.
      2.90356636e-01 2.00960740e-01 2.46526673e-01 2.58712042e-02
      1.91487931e-02 2.94780713e-02 7.63499551e-03 6.45390153e-02 0.
      8.56060758e-02 2.86080986e-02 2.58712042e-02 2.16177359e-01
      1.84890047e-01 2.90356636e-01 4.40786481e-02 2.33770728e-01 0.
      2.90356636e-01 1.85338542e-01 2.16177359e-01 2.31908366e-01
      7.80962929e-02 1.76689744e-01 1.03910062e-02 1.94228798e-01
      6.26563141e-03 2.03854069e-01 6.81750774e-02 2.41157740e-01
      1.65738672e-01 4.70217578e-02 1.12446494e-01 1.41158793e-03
      2.96756566e-01 2.17533298e-02 1.25180006e-01 4.23888005e-02
      1.76054046e-01 2.96756566e-01 9.50119346e-02 1.65211096e-01
      1.40192127e-02 1.21604800e-01 1.70714527e-04 2.35689163e-01
      7.87632838e-02 2.96756566e-01 2.96756566e-01 4.74190935e-02
      1.16976514e-01 7.06093677e-04 2.96756566e-01 7.39762909e-04
      1.16411924e-01 3.88451032e-02 2.96756566e-01 1.27098253e-02
      3.30063775e-02 8.43364820e-02 7.85328506e-04 4.72258419e-01
      7.44516449e-03 8.77697095e-02 2.98714731e-02 1.48375668e-02
      2.29413295e-03 3.00343838e-02 8.93403888e-02 8.96437746e-03
      4.72258419e-01 0. 6.99096471e-02 2.37898286e-02 1.89152791e-03
      6.57886192e-02 3.09799444e-02 9.02063102e-02 0. 4.72258419e-01
      2.71127734e-04 1.04069188e-01 3.48285474e-02 6.57886192e-02
      5.37965782e-02 4.50057462e-02 1.35280669e-01 0. 4.72258419e-01 0.
      1.17804848e-01 4.14708778e-02 5.37965782e-02 0. 0. 0. 0. 0. 0. 0.
      0. 0. 0. 0. 0. 0. 0. 0. 0. 0. 0. 0. 0. 0. 0. 0. 0. 0. 0. 0. 0. 0.
      0. 0. 0. 0. 0. 0. 0. 3.00238971e-02 7.92388432e-03 2.65839719e-03
      0. 4.16119844e-02 0. 3.51594202e-02 1.17496913e-02 3.00238971e-02
      3.82418633e-01 3.59552920e-01 3.72065425e-01 6.19759373e-02
      3.82418633e-01 0. 3.82418633e-01 3.65536273e-01 3.82418633e-01 0.
      0. 0. 0. 0. 0. 0. 0. 0. 2.29809564e-02 0. 0. 0. 0. 0. 0. 0.
      2.29809564e-02 3.41519862e-01 7.68457726e-02 8.05217996e-02
      9.72044282e-03 1.17968053e-01 0. 2.28324443e-01 7.63021782e-02
      3.41519862e-01 3.41519862e-01 1.19112879e-01 3.07064086e-01
      6.48029614e-04 3.41519862e-01 0. 3.41519862e-01 1.83345869e-01
      3.41519862e-01 1.43243503e-02 0. 0. 0. 6.68709958e-03 0.
      3.64139793e-03 1.21689436e-03 1.43243503e-02 8.07027519e-02
      3.14765684e-02 9.74420607e-02 0. 1.27370253e-01 0. 1.65232241e-01
      5.31049222e-02 8.07027519e-02 2.15953439e-01 1.22595206e-01
      3.26837271e-01 0. 3.26837271e-01 0. 3.26837271e-01 1.45341232e-01
      2.15953439e-01 2.42337629e-01 1.27539411e-01 3.26837271e-01 0.
      3.26837271e-01 0. 2.93452710e-01 9.75666121e-02 2.42337629e-01
      9.87524763e-02 4.40864153e-02 1.39929116e-01 0. 1.06954753e-01 0.
      1.50206178e-01 4.72894311e-02 9.87524763e-02 8.33595768e-02
      2.60342583e-02 8.09224918e-02 0. 5.62384166e-02 0. 4.57538515e-02
      1.39798494e-02 8.33595768e-02</_>
    <_>
      4.37477939e-02 3.58985439e-02 1.07421756e-01 0. 2.47718871e-01
      1.09679345e-02 2.26905365e-02 5.81525173e-03 4.57212664e-02
      2.11287752e-01 8.76536444e-02 2.62292385e-01 0. 3.34451884e-01
      8.53061490e-03 1.22176550e-01 3.97779122e-02 2.29322284e-01
      9.99955237e-02 1.05367243e-01 3.14450860e-01 0. 3.34451884e-01
      6.41706139e-02 7.81172514e-02 5.40627465e-02 1.34366825e-01
      1.40576988e-01 1.03649087e-01 3.07817727e-01 0. 3.34451884e-01
      4.08066697e-02 2.83084780e-01 1.02773212e-01 1.52068466e-01
      2.56810755e-01 5.09504043e-02 1.49825633e-01 0. 2.74886101e-01
      9.59525164e-03 1.83379203e-01 6.45973608e-02 2.74886101e-01
      1.90731511e-01 6.23401031e-02 1.87803239e-01 0. 2.74886101e-01
      1.39223672e-02 2.74886101e-01 1.15065612e-01 2.49217644e-01
      1.09472521e-01 5.11726290e-02 1.45153701e-01 5.88303246e-03
      2.74886101e-01 5.08432603e-03 1.87557593e-01 6.45474344e-02
      1.01309948e-01 1.34277031e-01 9.93651152e-02 2.67680466e-01
      7.56389927e-03 2.74886101e-01 8.57563689e-03 2.31992304e-01
      8.48986804e-02 1.33626208e-01 1.93138972e-01 3.69007997e-02
      1.14320882e-01 0. 3.45728308e-01 8.85492936e-03 2.81935811e-01
      9.42180753e-02 2.09758490e-01 5.99426366e-02 1.81218609e-03
      5.42275188e-03 0. 1.49980858e-01 2.90116062e-03 9.56183225e-02
      3.19539718e-02 6.61191717e-02 1.91398561e-01 7.44613186e-02
      2.08525568e-01 1.51586102e-03 3.45728308e-01 1.54980114e-02
      3.45728308e-01 1.35680929e-01 2.16242626e-01 1.17710218e-01
      4.89803357e-03 1.46567859e-02 0. 3.45728308e-01 1.14209615e-02
      3.11377436e-01 1.04056939e-01 1.43219039e-01 4.62774597e-02 0. 0.
      0. 2.57997036e-01 0. 6.79202899e-02 2.26977672e-02 4.62774597e-02
      0. 0. 0. 0. 0. 0. 0. 0. 0. 3.21552932e-01 0. 0. 0. 5.55121243e-01
      1.82495229e-02 5.55121243e-01 2.50742197e-01 3.68188143e-01 0. 0.
      0. 0. 0. 0. 0. 0. 0. 7.21250102e-02 7.86010846e-02 2.34653771e-01
      0. 2.91857362e-01 4.84448001e-02 5.08717336e-02 4.25842479e-02
      1.02500126e-01 1.57721266e-01 7.56239817e-02 2.25605756e-01 0.
      2.91857362e-01 1.85663663e-02 2.91857362e-01 1.07745379e-01
      1.52031228e-01 1.63028434e-01 6.88153803e-02 2.05928192e-01 0.
      2.91857362e-01 1.58821903e-02 9.29630175e-02 4.15856317e-02
      1.93104595e-01 2.91857362e-01 5.74238300e-02 1.86805487e-01
      4.38832259e-03 2.38046288e-01 7.63759715e-03 2.49359712e-01
      8.36118609e-02 2.91857362e-01 2.19610199e-01 8.37832615e-02
      2.32292876e-01 8.90019257e-03 2.39140913e-01 2.95963068e-03
      2.39140913e-01 9.65481475e-02 1.69097528e-01 1.54413760e-01
      1.29591763e-01 2.39140913e-01 1.19764283e-02 2.39140913e-01
      4.05729888e-03 1.53209656e-01 7.04124048e-02 1.28336951e-01
      2.39140913e-01 7.66743943e-02 2.22859085e-01 8.32053740e-03
      1.81458056e-01 6.49331510e-03 2.39140913e-01 1.06465355e-01
      2.39140913e-01 1.73987836e-01 1.55004010e-01 2.39140913e-01
      1.44357448e-02 2.39140913e-01 3.23905610e-03 2.39140913e-01
      1.10759594e-01 1.61593467e-01 7.73880631e-02 6.34507015e-02
      1.42689198e-01 2.56499136e-03 4.07077760e-01 6.61728811e-03
      1.83076560e-01 6.89454451e-02 9.19223651e-02 6.65481538e-02
      1.50324753e-03 4.49829036e-03 0. 4.07077760e-01 6.84149517e-03
      1.97478905e-01 6.59940392e-02 8.54852051e-02 8.41343775e-02
      1.15644038e-01 2.68309802e-01 1.39990756e-02 4.07077760e-01
      8.74853227e-04 2.81209439e-01 9.70060900e-02 7.53270537e-02
      3.71829346e-02 2.51898095e-02 7.10605159e-02 3.23842186e-03
      4.07077760e-01 4.28006490e-04 7.14512393e-02 2.38777623e-02
      3.49983573e-02 8.14526752e-02 0. 0. 0. 6.73532546e-01
      4.87522036e-03 2.30405942e-01 7.69976452e-02 1.01992846e-01 0. 0.
      0. 0. 0. 0. 0. 0. 0. 3.71480212e-02 2.36035008e-02 7.06306323e-02
      1.04298792e-03 6.73532546e-01 3.25014669e-04 4.01975326e-02
      1.34333158e-02 3.44129652e-02 0. 0. 0. 0. 0. 0. 0. 0. 0.
      1.43560931e-01 5.82062639e-02 1.80792272e-01 0. 2.57686347e-01 0.
      1.23597600e-01 4.14271057e-02 1.70733139e-01 2.57686347e-01
      4.99867536e-02 1.49652898e-01 5.15844487e-03 1.68515101e-01
      1.52695701e-02 2.06798717e-01 6.88712969e-02 2.57686347e-01
      1.22387111e-01 8.61716494e-02 2.57686347e-01 0. 2.57686347e-01 0.
      2.57686347e-01 1.07343726e-01 1.28657609e-01 2.57686347e-01
      8.74856636e-02 2.51053095e-01 9.34527430e-04 2.57686347e-01
      1.28996186e-02 2.57686347e-01 9.04837698e-02 2.57686347e-01
      1.27506092e-01 6.12293817e-02 1.54276922e-01 6.73425850e-03
      2.43370861e-01 1.97697543e-02 2.55748034e-01 8.60363618e-02
      1.50574714e-01 4.56350669e-02 1.33378923e-01 3.48959595e-01
      8.70263111e-03 3.52519125e-01 5.65487891e-03 3.52519125e-01
      1.20371379e-01 4.28214893e-02 1.49464041e-01 4.80000749e-02
      1.18015721e-01 1.76670472e-03 3.52519125e-01 2.24605240e-02
      1.52052820e-01 5.13728261e-02 1.63996801e-01 9.01881512e-03
      5.56958653e-02 1.44764632e-01 1.76385150e-03 3.52519125e-01
      8.69506877e-03 1.53554365e-01 5.18850014e-02 1.20069981e-02
      4.26833071e-02 1.23081140e-01 3.31575990e-01 1.50661282e-02
      4.07220811e-01 0. 3.21444631e-01 1.06594093e-01 3.22870314e-02
      4.91045676e-02 5.17176278e-02 1.56123713e-01 8.42134189e-03
      4.07220811e-01 0. 6.63873777e-02 2.21855137e-02 3.75658236e-02
      9.50433128e-03 4.95909937e-02 1.49759948e-01 6.69239974e-03
      4.07220811e-01 0. 1.26532137e-01 4.23479974e-02 7.12029310e-03
      2.59483084e-02 2.76380181e-02 9.03976262e-02 5.94593771e-03
      4.07220811e-01 0. 2.92820297e-02 9.78555344e-03 2.07034238e-02
      1.52698532e-01 1.14120722e-01 3.41492534e-01 7.35287182e-03
      6.20879114e-01 0. 0. 0. 1.20735541e-01 0. 0. 0. 0. 0. 0. 0. 0. 0.
      9.65505689e-02 6.27116933e-02 1.87657222e-01 5.71890036e-03
      6.20879114e-01 0. 0. 0. 8.20219368e-02 0. 0. 0. 0. 0. 0. 0. 0. 0.
      1.35248363e-01 1.03161514e-01 2.86780089e-01 0. 2.42062420e-01 0.
      2.86780089e-01 1.50761932e-01 1.35248363e-01 2.86780089e-01
      1.40431195e-01 2.86780089e-01 0. 2.86780089e-01 2.16659368e-03
      2.86780089e-01 1.46575734e-01 2.86780089e-01 6.35915399e-02
      2.22797077e-02 5.77624515e-02 0. 5.56273162e-02 0. 1.10892192e-01
      3.70582938e-02 6.35915399e-02 2.86780089e-01 4.13928591e-02
      9.82324854e-02 0. 9.71936062e-02 0. 1.84138879e-01 6.15360923e-02
      2.86780089e-01 2.80104756e-01 4.08722684e-02 1.07812963e-01
      2.42373615e-04 3.74524504e-01 3.98993213e-03 8.91876966e-02
      3.00248675e-02 2.80104756e-01 4.37472016e-02 2.22492293e-02
      5.33340387e-02 5.33221988e-04 3.74524504e-01 3.47387115e-03
      5.63379563e-02 2.56407354e-02 4.37472016e-02 2.23196849e-01
      3.98030877e-02 7.99654946e-02 3.63560440e-03 2.93241143e-01
      1.98614760e-03 1.59665763e-01 5.18728122e-02 2.23196849e-01
      1.34519279e-01 8.30847025e-02 2.20603690e-01 7.99833052e-03
      3.74524504e-01 1.11293262e-02 2.49321342e-01 9.71869901e-02
      1.34519279e-01 3.86297964e-02 3.72386463e-02 1.09019347e-01
      1.85127006e-04 4.49448317e-01 5.17840264e-03 8.35290998e-02
      4.66418751e-02 3.86297964e-02 1.71490237e-02 2.48051956e-02
      7.42265433e-02 0. 4.49448317e-01 2.20453041e-03 2.98830401e-02
      2.27620397e-02 1.71490237e-02 1.92563727e-01 9.88178104e-02
      2.95443177e-01 2.77690496e-03 4.49448317e-01 1.55964727e-02
      1.93990365e-01 9.28250924e-02 1.92563727e-01 5.97703382e-02
      4.37347032e-02 1.30870834e-01 0. 3.29806179e-01 4.84996662e-03
      4.88302894e-02 2.92654783e-02 5.97703382e-02 4.48672324e-02
      4.59136702e-02 1.37391195e-01 0. 6.76042020e-01 0. 0. 0.
      4.48672324e-02 0. 0. 0. 0. 0. 0. 0. 0. 0. 9.87079069e-02
      5.90318553e-02 1.76645830e-01 0. 6.76042020e-01 0. 0. 0.
      9.87079069e-02 0. 0. 0. 0. 0. 0. 0. 0. 0.</_>
    <_>
      2.72989929e-01 5.92968613e-02 3.60237002e-01 2.56121188e-01
      3.81456584e-01 1.01179264e-01 2.72405893e-02 1.95948593e-03
      1.51278242e-01 5.72270304e-02 4.08318304e-02 1.38859391e-01
      8.85674953e-02 3.81456584e-01 1.87676549e-02 6.22602142e-02
      1.99882723e-02 3.16804238e-02 9.42214057e-02 2.63275690e-02
      1.51239529e-01 9.89352092e-02 3.81456584e-01 7.25162476e-02
      7.36286193e-02 1.38558475e-02 7.18328878e-02 3.05250306e-02
      2.27343496e-02 6.65415600e-02 5.12887351e-02 3.81456584e-01
      1.94339398e-02 4.04495411e-02 1.32309413e-02 1.46968495e-02
      2.20117941e-02 2.11288203e-02 6.62705377e-02 1.08119538e-02
      1.56589970e-01 8.92153662e-03 3.95486355e-02 1.27600022e-02
      1.62542481e-02 1.16446599e-01 9.62651968e-02 2.81252712e-01
      9.52956080e-03 3.75358611e-01 1.16920667e-02 1.01104334e-01
      2.71145217e-02 1.13161340e-01 6.77337870e-02 6.60124943e-02
      1.82737634e-01 1.41241234e-02 3.75358611e-01 2.60939561e-02
      2.34483331e-02 2.35231891e-02 7.80852512e-02 2.21962258e-01
      2.00974524e-01 3.75358611e-01 8.99223704e-03 3.75358611e-01
      1.01086654e-01 2.10211843e-01 1.00386277e-01 2.64725149e-01
      2.23878413e-01 6.78277314e-02 1.99041933e-01 1.15114218e-03
      2.91119725e-01 3.25175654e-03 1.03208989e-01 3.44462804e-02
      2.45931432e-01 2.91119725e-01 6.12572320e-02 1.79394573e-01
      2.08996844e-05 2.39268303e-01 1.43006053e-02 2.86499083e-01
      9.91995186e-02 2.91119725e-01 1.13582022e-01 6.79278746e-02
      1.99005947e-01 7.23790785e-04 2.91119725e-01 2.20584609e-02
      1.69499680e-01 5.76513782e-02 1.25462741e-01 1.24395214e-01
      5.77337034e-02 1.63265526e-01 5.85596217e-03 2.91119725e-01
      1.11226924e-02 2.07183316e-01 7.36895800e-02 1.48248821e-01
      1.85740009e-01 5.76265305e-02 1.73172921e-01 0. 2.46740535e-01
      1.18802488e-02 3.15802336e-01 1.11924246e-01 2.29880556e-01
      1.18284591e-01 1.28649529e-02 4.01890278e-02 0. 1.52210608e-01
      3.91350640e-03 1.42638221e-01 4.76672091e-02 1.24317572e-01
      1.55214056e-01 8.77898559e-02 2.48642921e-01 4.13543638e-03
      3.15802336e-01 1.21104298e-02 2.97648162e-01 1.03927270e-01
      1.74655184e-01 1.81421176e-01 3.54951099e-02 1.04554221e-01 0.
      3.15802336e-01 1.37141002e-02 3.15802336e-01 1.22068554e-01
      2.06904918e-01 4.93330099e-02 1.23528892e-03 8.87245499e-03
      4.27265428e-02 3.60973090e-01 9.57584977e-02 1.68987319e-01
      2.77625341e-02 9.78799984e-02 5.70184775e-02 2.71542221e-02
      9.85917971e-02 5.30728698e-02 3.60973090e-01 3.63750719e-02
      5.56857921e-02 1.64617468e-02 3.25622968e-02 1.76121444e-01
      9.79294069e-03 4.01594155e-02 1.12032160e-01 3.60973090e-01
      2.39669159e-01 3.01326811e-01 1.16627075e-01 2.95399219e-01
      7.94288740e-02 5.44370376e-02 1.89922199e-01 9.28936079e-02
      3.60973090e-01 1.36065170e-01 1.54228091e-01 5.65242767e-02
      8.14963505e-02 6.60782754e-02 5.84015809e-02 1.70414641e-01
      2.95279846e-02 3.32938403e-01 1.28478222e-02 1.89041905e-02
      1.46090090e-02 5.46158180e-02 1.30404830e-01 1.14899896e-01
      3.26870114e-01 1.35336984e-02 3.32938403e-01 3.46323550e-02
      1.61296278e-01 7.36590996e-02 1.44109935e-01 6.69018328e-02
      5.21565154e-02 1.67510375e-01 3.57906111e-02 3.32938403e-01
      3.40444073e-02 5.21213301e-02 1.76643934e-02 4.97171804e-02
      2.91870475e-01 8.82858261e-02 2.66193509e-01 1.16782077e-02
      3.32938403e-01 8.18924047e-03 1.36834219e-01 4.65370305e-02
      3.05119693e-01 1.24618448e-01 6.36036992e-02 1.88941225e-01
      9.16814955e-04 2.42273241e-01 1.09294811e-02 2.42273241e-01
      9.39679369e-02 1.13215014e-01 1.92771316e-01 1.00071669e-01
      2.42273241e-01 1.35044064e-02 2.42273241e-01 3.65876686e-03
      2.21531436e-01 8.34332779e-02 1.38332143e-01 2.42273241e-01
      5.01503982e-02 1.60365880e-01 3.24136717e-03 2.11722553e-01
      2.39965320e-03 2.42273241e-01 8.28691274e-02 2.42273241e-01
      2.42273241e-01 1.09974697e-01 2.42273241e-01 1.10723861e-02
      2.22354263e-01 6.32660836e-03 2.42273241e-01 1.03404120e-01
      2.42273241e-01 1.25263363e-01 1.26985297e-01 2.98467159e-01
      1.07328082e-02 3.34035009e-01 4.27724700e-03 1.63373843e-01
      7.42304474e-02 1.08881831e-01 8.74883533e-02 3.31466421e-02
      7.98074231e-02 0. 3.34035009e-01 9.86923650e-03 2.48992875e-01
      8.54359195e-02 1.11142650e-01 1.72757804e-01 1.50399536e-01
      3.34035009e-01 1.42926434e-02 2.89958209e-01 3.86228622e-03
      2.42744505e-01 9.44738463e-02 1.61598861e-01 6.79626241e-02
      5.45719974e-02 1.12903036e-01 5.49121015e-03 3.34035009e-01
      1.85424113e-03 1.70905143e-01 5.94697744e-02 6.73764721e-02
      1.23643495e-01 2.62135342e-02 5.06166555e-02 5.14149666e-02
      3.61004889e-01 1.50793597e-01 1.93677709e-01 1.27098158e-01
      2.57236570e-01 4.08078842e-02 3.08945123e-02 9.75147039e-02
      4.02644165e-02 3.61004889e-01 8.49575624e-02 1.33904099e-01
      5.56188487e-02 6.99342564e-02 1.67025536e-01 8.83708596e-02
      2.09283888e-01 1.42430097e-01 3.61004889e-01 1.11346304e-01
      9.08479616e-02 7.79659450e-02 2.33322248e-01 7.36793056e-02
      4.57630605e-02 1.89132020e-01 6.83927014e-02 3.61004889e-01
      6.90541342e-02 1.31517529e-01 5.08343875e-02 1.04282655e-01
      4.58344854e-02 3.39828096e-02 1.08198948e-01 8.33736733e-03
      2.96474248e-01 1.95235107e-02 6.93951473e-02 2.35174522e-02
      4.68561649e-02 2.70785779e-01 7.15400428e-02 2.26394013e-01
      2.12856568e-03 2.96474248e-01 6.21000025e-03 1.51895806e-01
      5.05630076e-02 2.96474248e-01 6.19531833e-02 4.44911607e-02
      1.55919060e-01 3.85044795e-03 2.96474248e-01 7.38867605e-03
      1.86821401e-01 6.29490912e-02 6.19006306e-02 2.20977515e-01
      1.02045283e-01 2.96474248e-01 2.40538429e-04 2.96474248e-01
      2.61413935e-03 2.96474248e-01 1.08131491e-01 2.44077563e-01
      2.60101765e-01 3.91312502e-02 1.14996068e-01 5.18164132e-03
      1.21173695e-01 1.21598337e-02 1.88936964e-01 6.29274994e-02
      2.84727842e-01 1.38188452e-01 1.01667590e-01 2.61112660e-01
      8.32032226e-03 2.84727842e-01 1.55569529e-02 2.84727842e-01
      1.13145433e-01 1.51196703e-01 2.34413907e-01 5.50616421e-02
      1.53575569e-01 2.13279249e-03 2.71232069e-01 1.79487821e-02
      1.94113299e-01 6.50090948e-02 2.63195455e-01 9.33640301e-02
      7.93263465e-02 1.86906263e-01 3.67731159e-03 2.84727842e-01
      3.04094460e-02 2.54916698e-01 8.63159671e-02 1.11412898e-01
      5.29921241e-02 1.20850570e-01 3.16709161e-01 9.43978038e-03
      2.75921285e-01 2.16249470e-03 3.15142781e-01 1.04333222e-01
      4.79580909e-02 4.49382253e-02 8.61043036e-02 2.32285276e-01
      1.27870422e-02 3.72858375e-01 0. 2.09833294e-01 6.97443709e-02
      3.38134021e-02 6.79116743e-03 7.68705234e-02 2.04110205e-01
      3.52105196e-03 3.72858375e-01 5.42953843e-03 2.12790608e-01
      7.14747980e-02 9.05240141e-03 2.34616846e-02 6.21314533e-02
      1.87288284e-01 1.07712047e-02 3.72858375e-01 0. 1.37868151e-01
      4.59868498e-02 1.77421942e-02 2.77218789e-01 1.30078599e-01
      2.57700682e-01 2.96969026e-01 2.96969026e-01 1.27146170e-01
      2.32108161e-02 2.44903825e-02 1.71259373e-01 7.44890720e-02
      3.92669104e-02 1.56327501e-01 1.13179512e-01 2.96969026e-01
      5.80362305e-02 8.49923939e-02 3.16885412e-02 7.43755773e-02
      2.26292074e-01 1.03486277e-01 2.89694965e-01 2.44309306e-01
      2.96969026e-01 1.29327357e-01 7.95716718e-02 2.83284020e-02
      1.86573446e-01 3.19859609e-02 2.81937793e-02 8.14362988e-02
      5.26183248e-02 2.96969026e-01 4.34473753e-02 9.12054926e-02
      2.59670019e-02 3.87634225e-02 6.83111995e-02 4.87130843e-02
      1.60978824e-01 3.21063213e-03 2.81102955e-01 4.85510239e-03
      2.81102955e-01 9.50012580e-02 6.84210360e-02 2.81102955e-01
      1.95841774e-01 2.81102955e-01 0. 2.81102955e-01 4.47723491e-04
      2.81102955e-01 2.50156105e-01 2.81102955e-01 2.03954205e-02
      8.74947570e-03 2.57459171e-02 1.09281868e-03 6.26559779e-02
      4.83229384e-03 6.16907515e-02 2.10116208e-02 2.33425740e-02
      2.46710584e-01 8.05298984e-02 2.15614781e-01 0. 1.38336748e-01
      2.33839324e-04 2.81102955e-01 1.16832092e-01 2.46755138e-01
      3.08596432e-01 7.42032155e-02 2.08439812e-01 0. 2.40803614e-01
      3.38983652e-03 2.10880160e-01 7.04905987e-02 3.08596432e-01
      1.77571833e-01 3.02761104e-02 7.58410245e-02 0. 3.08596432e-01
      7.45763956e-03 5.80428652e-02 2.02482678e-02 1.79896295e-01
      2.97945291e-01 3.93297225e-02 9.46833864e-02 0. 1.02568582e-01 0.
      1.46681875e-01 4.90185954e-02 2.97945291e-01 2.22856760e-01
      6.07481934e-02 1.24424808e-01 5.26165403e-03 3.08596432e-01
      3.44213401e-03 1.98476538e-01 6.90909922e-02 2.22856760e-01
      1.60688478e-02 1.45266047e-02 3.80133539e-02 1.94120599e-04
      4.42939728e-01 2.66404683e-03 3.89649943e-02 1.63477678e-02
      1.64068285e-02 1.21870749e-02 2.06394792e-02 6.69132173e-02
      1.34298857e-03 4.42939728e-01 1.92773854e-03 4.19593565e-02
      2.43236590e-02 1.21870749e-02 1.10693976e-01 7.14299232e-02
      1.89126626e-01 5.65303909e-03 4.42939728e-01 9.89432167e-03
      2.00921372e-01 8.20165500e-02 1.10693976e-01 1.11250229e-01
      6.71302006e-02 2.02825308e-01 3.76869313e-04 4.42939728e-01
      9.76059400e-03 1.11875266e-01 6.03842027e-02 1.11250229e-01</_>
    <_>
      0. 0. 0. 0. 1.35203090e-03 0. 0. 0. 0. 9.33331996e-02
      4.78320196e-02 1.43131122e-01 1.12274243e-03 2.31297612e-01 0.
      4.59206849e-03 1.53459248e-03 8.86076689e-02 1.12174219e-02
      6.59719761e-03 1.97412558e-02 3.67162662e-04 7.35861212e-02 0. 0.
      0. 1.12174219e-02 4.13860440e-01 3.31465811e-01 4.83244270e-01
      2.23485790e-02 4.83244270e-01 0. 6.88810199e-02 2.30188854e-02
      3.77144098e-01 5.76316081e-02 4.27253544e-02 1.27850130e-01
      2.95812031e-04 3.25895995e-01 7.81549700e-03 3.08848079e-02
      1.30133992e-02 5.55788688e-02 2.47506261e-01 7.41649345e-02
      2.07133323e-01 6.82643149e-05 3.25895995e-01 2.02187859e-02
      9.40124616e-02 5.99078499e-02 2.76484013e-01 1.40251949e-01
      1.02256559e-01 3.04654926e-01 4.97099571e-03 3.25895995e-01
      1.80357636e-03 1.23102978e-01 4.00242545e-02 1.28761679e-01
      1.46692693e-01 8.02995265e-02 2.37237841e-01 2.87846103e-03
      3.25895995e-01 5.57058910e-03 2.80922741e-01 9.22509357e-02
      1.38493583e-01 2.25353271e-01 5.43986000e-02 1.21570766e-01
      5.57440706e-03 2.63726234e-01 1.55372517e-02 1.99616045e-01
      7.74551630e-02 2.81699419e-01 1.51626170e-01 6.55163378e-02
      1.91854537e-01 3.66085954e-02 2.81699419e-01 1.20949037e-02
      2.81699419e-01 1.26168042e-01 2.20978633e-01 1.08350188e-01
      5.73900230e-02 1.57859713e-01 8.70638154e-03 2.81699419e-01
      7.20771868e-03 1.76579013e-01 6.35884106e-02 1.00615069e-01
      1.28854245e-01 9.35336202e-02 2.77347654e-01 1.12756183e-02
      2.81699419e-01 8.43151193e-03 2.55195171e-01 1.01704709e-01
      1.50079682e-01 1.79954037e-01 4.38269600e-02 1.80991828e-01
      7.83937499e-02 3.46251786e-01 6.73626596e-03 2.47572765e-01
      1.09900579e-01 2.06446201e-01 4.75559384e-02 1.23302545e-02
      5.33705130e-02 3.84988673e-02 2.02672735e-01 1.55452290e-03
      7.22229555e-02 2.35344600e-02 4.36016470e-02 1.76037818e-01
      6.87461644e-02 2.39837274e-01 1.06461737e-02 3.46251786e-01
      8.66091251e-03 3.46251786e-01 1.62660316e-01 2.21534073e-01
      8.23959783e-02 2.30288059e-02 7.62161985e-02 6.65046228e-03
      3.46251786e-01 1.99867226e-03 2.70488799e-01 8.83246288e-02
      9.55947042e-02 8.39661807e-03 7.04149110e-03 2.10707467e-02
      4.53123968e-04 1.29243419e-01 0. 0. 0. 8.39661807e-03
      1.34319291e-01 1.23694688e-01 3.70140761e-01 9.60967317e-03
      4.93752778e-01 0. 1.15045374e-02 3.84462415e-03 1.20089404e-01
      3.81664420e-03 4.92849713e-03 1.47478851e-02 3.52429750e-04
      3.68274063e-01 0. 0. 0. 3.81664420e-03 1.41529664e-01
      1.05270244e-01 3.15008044e-01 5.28644584e-03 4.93752778e-01 0.
      1.29328281e-01 4.32468280e-02 1.42392889e-01 1.06873207e-01
      7.36351609e-02 2.19537124e-01 3.86474375e-03 2.75951385e-01 0.
      9.11896825e-02 3.04740500e-02 9.90227461e-02 1.83887586e-01
      7.20353052e-02 2.15420797e-01 2.79657659e-03 2.75951385e-01
      7.76346540e-04 2.75951385e-01 1.09662503e-01 1.59904674e-01
      2.28087485e-01 6.68912083e-02 2.02973396e-01 1.72861037e-03
      2.75951385e-01 3.28061084e-04 1.08450636e-01 3.58489491e-02
      2.48421863e-01 2.75951385e-01 5.76750077e-02 1.85789004e-01
      6.21860754e-03 1.92624077e-01 5.52474195e-03 2.75951385e-01
      9.79922041e-02 2.75951385e-01 2.26080149e-01 9.96068642e-02
      2.40618855e-01 1.15561411e-02 2.40618855e-01 3.81260132e-03
      2.40618855e-01 9.09550637e-02 1.71196148e-01 1.22373328e-01
      1.19776830e-01 2.40618855e-01 9.48943198e-03 2.40618855e-01
      3.39956908e-03 1.43187433e-01 6.60093054e-02 1.09261945e-01
      2.40618855e-01 9.92676616e-02 2.40618855e-01 9.63566918e-03
      2.07158387e-01 6.23592176e-03 2.40618855e-01 1.10177957e-01
      2.40618855e-01 1.40584007e-01 1.53698623e-01 2.40618855e-01
      1.48813911e-02 2.40618855e-01 2.30638869e-03 2.40618855e-01
      1.10439099e-01 1.30351633e-01 6.74880818e-02 5.88312373e-02
      1.54669985e-01 3.77393066e-04 4.25234318e-01 9.56351694e-04
      2.08065420e-01 7.42435902e-02 7.39227906e-02 4.29607704e-02
      2.68737078e-02 6.59089610e-02 9.91647394e-05 4.25234318e-01
      2.20696573e-04 1.81445643e-01 6.03025258e-02 4.49343398e-02
      6.01819381e-02 9.18853730e-02 2.13188604e-01 9.71429329e-03
      4.25234318e-01 0. 2.50402659e-01 8.75059292e-02 5.46899140e-02
      1.43520441e-02 2.47923210e-02 6.47459179e-02 8.70124670e-04
      4.25234318e-01 0. 6.30658716e-02 2.45519336e-02 1.43520441e-02
      6.12440053e-04 0. 1.60295970e-03 5.30870573e-04 3.28479916e-01 0.
      4.92396858e-03 1.64550787e-03 6.12440053e-04 1.30000234e-01
      8.00431147e-02 2.48975471e-01 7.96305947e-03 4.19506550e-01 0.
      1.91115350e-01 6.44432381e-02 1.39880106e-01 9.18660033e-03 0.
      6.94615813e-03 2.30043917e-03 2.11009696e-01 0. 2.52857879e-02
      8.45008716e-03 9.18660033e-03 1.32744819e-01 1.35568008e-01
      2.94898868e-01 5.07375337e-02 4.19506550e-01 0. 4.19506550e-01
      1.58396825e-01 1.35024801e-01 1.90466538e-01 6.05013631e-02
      1.83760703e-01 2.50487309e-03 2.44948030e-01 8.63905356e-04
      1.28490031e-01 4.29711752e-02 2.26838350e-01 2.44948030e-01
      5.18061072e-02 1.44134596e-01 7.12252688e-03 1.81137592e-01
      2.12696381e-02 2.44948030e-01 8.48575979e-02 2.44948030e-01
      1.62769139e-01 1.11424237e-01 2.37599775e-01 2.41329465e-02
      2.44948030e-01 3.92684276e-04 2.44948030e-01 1.01140663e-01
      1.71162620e-01 2.44948030e-01 8.31179321e-02 2.01610461e-01
      6.89387089e-03 2.44948030e-01 1.96836554e-02 2.44662672e-01
      8.20757523e-02 2.44948030e-01 9.23213661e-02 7.55303130e-02
      1.89526498e-01 6.49435213e-03 2.81971902e-01 1.72424279e-02
      2.70212561e-01 9.08073112e-02 1.08030379e-01 3.76155004e-02
      1.30137756e-01 3.43183726e-01 9.25455708e-03 3.61080438e-01
      2.52861553e-03 3.53983611e-01 1.16050556e-01 3.20754386e-02
      9.81257409e-02 4.73114289e-02 1.11987844e-01 1.68131047e-03
      3.61080438e-01 2.10421346e-02 1.44092217e-01 4.87953462e-02
      1.10284530e-01 3.01047880e-03 5.17446361e-02 1.39963463e-01
      2.04629591e-03 3.61080438e-01 4.19660099e-03 1.46700367e-01
      4.81201559e-02 3.78639298e-03 3.29393297e-02 1.15439653e-01
      3.16308379e-01 1.13886595e-02 4.09233421e-01 4.37968440e-04
      3.31311584e-01 1.08835049e-01 2.95208041e-02 2.43598707e-02
      4.37214114e-02 1.34725079e-01 2.38459068e-03 4.09233421e-01
      6.25569606e-04 8.08851644e-02 3.08784451e-02 2.43598707e-02
      8.56527314e-03 5.02587892e-02 1.54682890e-01 4.63929912e-03
      4.09233421e-01 3.54587589e-03 1.46443054e-01 4.47949655e-02
      8.56527314e-03 1.69134904e-02 2.42187828e-02 7.90605024e-02
      1.67999428e-03 4.09233421e-01 6.65329490e-03 4.92270850e-02
      1.52117200e-02 1.69134904e-02 2.22994555e-02 0. 1.02267331e-02
      3.38690472e-03 1.42634600e-01 0. 4.25313115e-02 1.42132556e-02
      2.22994555e-02 2.88282990e-01 3.34001094e-01 3.96380186e-01
      1.28458843e-01 3.96380186e-01 0. 3.96380186e-01 3.96380186e-01
      2.88282990e-01 0. 0. 0. 0. 1.12304860e-03 0. 0. 0. 0.
      5.49851730e-02 2.73396391e-02 5.22180498e-02 1.29684499e-02
      1.24236122e-01 0. 1.49081215e-01 4.98204231e-02 5.49851730e-02
      1.96471542e-01 1.54239029e-01 2.65662819e-01 3.49658914e-02
      2.04874948e-01 0. 2.81570405e-01 1.48921475e-01 1.96471542e-01
      2.81570405e-01 1.41153514e-01 2.81570405e-01 1.48974145e-02
      2.81570405e-01 3.59184528e-03 2.81570405e-01 1.07965276e-01
      2.81570405e-01 9.70293134e-02 4.03665118e-02 4.81917374e-02
      7.65724201e-03 5.00790365e-02 0. 1.17756158e-01 3.93521152e-02
      9.70293134e-02 2.81570405e-01 5.26431352e-02 7.12135360e-02
      5.39468788e-03 1.36800975e-01 0. 1.55335560e-01 5.19105159e-02
      2.81570405e-01 2.04785436e-01 3.33102383e-02 8.70654657e-02 0.
      4.01927143e-01 4.06271312e-03 6.48868307e-02 2.18443014e-02
      2.04765797e-01 2.93016117e-02 1.87153928e-02 5.88256866e-02
      8.57566309e-04 4.01927143e-01 1.40948792e-03 6.47026896e-02
      2.22887192e-02 2.67875101e-02 1.70250908e-01 4.10340875e-02
      1.12115778e-01 1.64157136e-05 3.92811358e-01 0. 1.68008715e-01
      5.49355000e-02 1.69956341e-01 1.30443946e-01 7.13582039e-02
      2.25855142e-01 3.57758114e-03 4.01927143e-01 3.68427904e-03
      2.32885256e-01 7.50493780e-02 1.15470096e-01 3.62223461e-02
      3.03092822e-02 1.13889225e-01 5.73270768e-03 4.28095877e-01
      1.27291046e-02 9.31890532e-02 3.38453576e-02 2.39112396e-02
      1.14217894e-02 1.19074453e-02 5.10058478e-02 4.45877295e-03
      4.28095877e-01 2.42311601e-02 3.07182129e-02 1.12116244e-02
      3.56531516e-03 1.77712366e-01 8.02866369e-02 2.75522768e-01
      1.81171708e-02 4.28095877e-01 3.50006297e-02 2.24574506e-01
      6.25899583e-02 1.46950886e-01 5.92510700e-02 3.38243917e-02
      1.23485163e-01 1.60047505e-02 4.28095877e-01 5.03649823e-02
      1.18586250e-01 2.33272817e-02 5.96332252e-02</_>
    <_>
      1.49984688e-01 6.09685667e-02 1.82134897e-01 3.25404317e-03
      2.43708089e-01 8.81622371e-04 2.43708089e-01 9.71736610e-02
      1.21948361e-01 1.81626499e-01 1.15429148e-01 2.43708089e-01
      1.41008543e-02 2.43708089e-01 3.82036390e-03 1.88561276e-01
      7.85328299e-02 1.29234850e-01 2.43708089e-01 5.19893952e-02
      1.66830793e-01 4.87585738e-03 1.71983853e-01 3.52582755e-03
      2.43708089e-01 9.30263400e-02 2.43708089e-01 2.43708089e-01
      1.29405379e-01 2.43708089e-01 1.24718808e-02 2.43708089e-01
      5.99931087e-03 2.43708089e-01 1.02169402e-01 2.43708089e-01
      9.70971659e-02 1.10185802e-01 2.50998765e-01 6.72312966e-03
      3.69631618e-01 4.96413512e-03 1.58787116e-01 7.06971958e-02
      9.29351002e-02 8.14354792e-02 1.73112042e-02 4.33333628e-02
      1.47960323e-03 3.69631618e-01 1.61897559e-02 2.65914857e-01
      7.69218132e-02 1.31992519e-01 1.34677783e-01 1.35813773e-01
      3.01181406e-01 1.29998866e-02 3.39041263e-01 2.78388127e-03
      2.27760613e-01 8.88954028e-02 1.29023150e-01 6.67072162e-02
      3.47238071e-02 7.33957365e-02 1.10545512e-02 3.69631618e-01
      1.86734926e-02 1.48035645e-01 4.67882529e-02 7.31654316e-02
      1.51669547e-01 1.85315572e-02 3.61310467e-02 1.09085971e-02
      4.37631577e-01 3.56296785e-02 2.63218284e-01 8.09402019e-02
      2.24428609e-01 1.99830651e-01 6.79569542e-02 1.11743443e-01
      2.68379059e-02 1.82955489e-01 3.52568328e-02 4.42263857e-02
      4.42666002e-02 1.91339254e-01 1.25260547e-01 2.57652532e-02
      5.33801541e-02 3.54512930e-02 4.37631577e-01 6.21077269e-02
      9.62919518e-02 3.66346128e-02 1.51481435e-01 1.64854020e-01
      5.49783185e-02 1.10432781e-01 4.32598777e-02 4.37631577e-01
      5.27938195e-02 3.16028707e-02 2.55082007e-02 1.70994923e-01
      2.62496591e-01 6.04672171e-02 1.17441095e-01 2.17071511e-02
      1.09882206e-01 2.09491942e-02 4.57021445e-02 5.70329353e-02
      2.62496591e-01 2.62496591e-01 4.71132845e-02 1.91392183e-01
      1.23463631e-01 2.62496591e-01 7.30935931e-02 6.61438778e-02
      5.97325787e-02 2.62496591e-01 2.62496591e-01 5.42802587e-02
      1.21403508e-01 3.60033289e-02 2.62496591e-01 4.49882969e-02
      3.82131189e-02 3.82794216e-02 2.62496591e-01 2.62496591e-01
      6.64074644e-02 2.50138760e-01 1.66874304e-01 2.62496591e-01
      1.15188934e-01 4.34925221e-02 4.85426001e-02 2.62496591e-01
      2.36165971e-01 3.89005505e-02 1.06896855e-01 6.13898830e-03
      1.24116093e-01 1.44595131e-02 2.08836913e-01 6.94007054e-02
      2.71427602e-01 1.02694862e-01 1.15099423e-01 3.00225139e-01
      8.56878236e-03 3.00225139e-01 1.16201453e-02 3.00225139e-01
      1.14584364e-01 1.09374337e-01 2.19451338e-01 4.87838648e-02
      1.25708222e-01 2.72842008e-03 3.00225139e-01 2.30749436e-02
      1.81614429e-01 6.09970577e-02 2.46088922e-01 5.05146980e-02
      8.33903998e-02 2.05471545e-01 3.34948255e-03 3.00225139e-01
      2.39459854e-02 2.51179516e-01 8.49192515e-02 6.32793158e-02
      4.79963869e-02 1.21580414e-01 3.24451029e-01 1.17792590e-02
      3.09214532e-01 1.70244602e-03 3.22636515e-01 1.07002690e-01
      3.99299525e-02 7.01961368e-02 6.71151951e-02 2.09762320e-01
      3.16073820e-02 3.69279712e-01 1.53760631e-02 1.54711068e-01
      5.35221323e-02 5.50682209e-02 5.96089195e-03 7.64219165e-02
      2.13807687e-01 7.32137216e-03 3.69279712e-01 4.51602181e-03
      2.13764369e-01 7.15833083e-02 5.46590239e-03 8.31652284e-02
      4.99111004e-02 1.86378866e-01 5.02693467e-02 3.69279712e-01
      2.52990127e-02 1.05521969e-01 3.66463028e-02 7.18187094e-02
      2.14878172e-01 6.31556362e-02 1.90844163e-01 8.79077464e-02
      3.22927117e-01 4.81071174e-02 4.31293324e-02 3.58486548e-02
      1.91058323e-01 1.60990626e-01 2.76103336e-02 4.56782207e-02
      3.57823372e-02 3.22927117e-01 4.06809784e-02 5.43107726e-02
      3.17761786e-02 1.52987719e-01 3.22927117e-01 5.77417761e-02
      1.90995023e-01 1.01808019e-01 3.22927117e-01 4.67223302e-02
      4.35396172e-02 3.17932367e-02 3.22927117e-01 3.22927117e-01
      2.27343291e-02 4.18239161e-02 2.36824062e-02 9.57822502e-02
      2.15330143e-02 5.24276868e-02 3.12848873e-02 3.22927117e-01
      2.51992017e-01 2.77134534e-02 5.86704314e-02 8.48607421e-02
      2.66083747e-01 6.72913194e-02 6.17294312e-02 2.22685914e-02
      2.11814508e-01 2.17521429e-01 6.09483570e-02 2.14516029e-01
      2.16345489e-01 2.66083747e-01 1.06834322e-01 2.03820281e-02
      1.85549892e-02 2.41781875e-01 2.66083747e-01 2.01509669e-02
      3.65845934e-02 1.04159892e-01 1.90994680e-01 8.98219645e-02
      8.93980712e-02 2.31831223e-02 2.66083747e-01 2.04625890e-01
      2.18436066e-02 5.63253574e-02 2.30460823e-01 2.66083747e-01
      2.25669026e-01 1.47224545e-01 3.46217416e-02 2.49274760e-01
      3.08441311e-01 5.35603054e-02 1.55820608e-01 1.00745914e-04
      3.24421495e-01 5.05558681e-03 1.41203314e-01 4.85106893e-02
      3.22970152e-01 1.01061270e-01 2.29651872e-02 5.51549755e-02 0.
      3.24421495e-01 6.50003925e-03 4.26975638e-02 1.77041497e-02
      1.03278987e-01 2.74381518e-01 3.89865264e-02 9.21877623e-02
      1.88709272e-03 2.48788491e-01 8.58485326e-03 1.31038234e-01
      5.00976443e-02 3.24421495e-01 1.66822121e-01 6.96566403e-02
      1.42636925e-01 1.05964215e-02 3.24421495e-01 2.04738304e-02
      2.03469247e-01 8.69744048e-02 1.75331295e-01 1.03982026e-02
      1.66023560e-02 4.56330813e-02 2.13659694e-03 4.32391644e-01
      4.79562534e-03 4.21079025e-02 2.23030336e-02 1.10843191e-02
      4.62615862e-02 2.22430285e-02 6.94813281e-02 2.74515655e-02
      4.32391644e-01 2.44742725e-02 3.69491950e-02 2.64051836e-02
      4.85272184e-02 1.27274811e-01 7.87559077e-02 2.19809517e-01
      8.64490774e-03 4.32391644e-01 2.73382328e-02 1.84932977e-01
      9.74419937e-02 1.36438265e-01 1.40040457e-01 6.88901544e-02
      1.90474331e-01 8.51357076e-03 4.32391644e-01 2.95660142e-02
      8.83755833e-02 6.21413365e-02 1.50348738e-01 2.66092062e-01
      3.87156308e-02 1.07662871e-01 7.21552372e-02 3.37433547e-01
      6.06884472e-02 5.20013422e-02 3.18878591e-02 2.78311968e-01
      3.37433547e-01 2.18330733e-02 6.62991703e-02 1.21257547e-02
      9.56531763e-02 1.97130423e-02 5.91666028e-02 2.89884601e-02
      3.37433547e-01 2.26610824e-01 7.55535960e-02 2.05710575e-01
      2.41886228e-02 3.37433547e-01 4.84168008e-02 8.45424533e-02
      5.66657931e-02 2.36993819e-01 2.67079949e-01 3.30048501e-02
      7.98698217e-02 1.30567560e-02 1.43209979e-01 1.25047062e-02
      8.14095289e-02 3.22627239e-02 2.68673360e-01 2.44101003e-01
      2.88725570e-02 7.13880658e-02 5.77412471e-02 1.28945813e-01
      5.80020584e-02 1.05908282e-01 4.28931713e-02 2.44101003e-01
      1.83257952e-01 6.43368512e-02 8.94350559e-02 1.60040602e-01
      2.44101003e-01 2.05331936e-01 2.44101003e-01 1.23163193e-01
      2.34261379e-01 2.29186445e-01 5.48557341e-02 1.05408259e-01
      2.40860581e-02 1.29695535e-01 2.15677097e-02 1.11865647e-01
      5.87929189e-02 2.33705074e-01 2.44101003e-01 2.21550882e-01
      1.98584795e-01 1.15888909e-01 2.44101003e-01 9.85796452e-02
      2.44101003e-01 1.68086737e-01 2.44101003e-01 2.04009637e-01
      2.71259733e-02 4.54811528e-02 1.20435180e-02 2.70435125e-01
      2.80156285e-02 1.36543944e-01 5.18252626e-02 2.55879760e-01
      2.70435125e-01 1.21012352e-01 2.70435125e-01 2.95717213e-02
      2.70435125e-01 4.94125970e-02 2.70435125e-01 1.65467635e-01
      2.70435125e-01 1.99752703e-01 1.30664150e-03 5.22492966e-03
      7.79339438e-03 2.45154083e-01 2.04253066e-02 7.05196634e-02
      2.80602947e-02 2.47114643e-01 2.70435125e-01 1.46973561e-02
      4.46501188e-02 9.54387523e-03 2.25774989e-01 2.19954401e-02
      1.11674823e-01 3.39548513e-02 2.70435125e-01 2.60400087e-01
      1.21977091e-01 2.60400087e-01 2.12913975e-02 2.60400087e-01
      5.51486425e-02 2.60400087e-01 1.35352969e-01 2.60400087e-01
      2.60400087e-01 6.88465536e-02 2.07262188e-01 7.47432746e-03
      2.25836113e-01 3.03546134e-02 9.25074443e-02 5.02168611e-02
      2.60400087e-01 2.60400087e-01 2.94656567e-02 7.61902556e-02
      2.31823456e-02 2.47056156e-01 3.21716964e-02 9.29583013e-02
      2.65576374e-02 2.60400087e-01 2.60400087e-01 2.18848158e-02
      7.23901913e-02 2.89576333e-02 1.30652547e-01 1.91591438e-02
      3.58836241e-02 1.21051325e-02 2.60400087e-01 3.39415282e-01
      3.41113992e-02 1.11250721e-01 1.07494760e-02 1.60770848e-01
      2.57330313e-02 6.01252988e-02 2.83552483e-02 3.39415282e-01
      3.39415282e-01 2.79282574e-02 6.07109219e-02 2.06494983e-02
      9.70600843e-02 1.29411109e-02 6.70408756e-02 2.00119186e-02
      3.39415282e-01 3.39415282e-01 1.06323371e-02 4.67590839e-02
      1.61007140e-02 7.26818889e-02 8.67004786e-03 1.38534475e-02
      5.00114355e-03 3.39415282e-01 3.39415282e-01 7.54482765e-03
      1.55031541e-02 7.01847021e-03 4.56577316e-02 4.07726830e-03
      1.93162765e-02 8.52500647e-03 3.39415282e-01 2.68358201e-01
      4.87647094e-02 6.96742311e-02 2.38211360e-02 8.77505988e-02
      2.96999179e-02 6.84314817e-02 3.63597311e-02 2.68358201e-01
      2.68358201e-01 2.11546063e-01 1.98397055e-01 9.45508257e-02
      2.68358201e-01 1.27340823e-01 1.16910435e-01 8.16440359e-02
      2.40188286e-01 2.68358201e-01 2.87410095e-02 2.07399987e-02
      3.13168168e-02 1.37447521e-01 8.91528875e-02 2.28042509e-02
      3.89454700e-02 2.68358201e-01 2.68358201e-01 1.24981895e-01
      1.19167164e-01 1.04240105e-01 2.68358201e-01 2.51552075e-01
      4.18820269e-02 5.15699461e-02 2.68358201e-01</_>
    <_>
      8.68430883e-02 6.65814206e-02 1.97835967e-01 0. 2.78053790e-01
      2.91999076e-02 1.57872424e-01 5.63097559e-02 9.49545577e-02
      8.46930668e-02 4.35588509e-02 1.23598918e-01 5.88153768e-03
      2.78053790e-01 5.46637969e-03 1.57013878e-01 5.38076833e-02
      8.37407038e-02 1.79486141e-01 7.95178562e-02 2.37527296e-01 0.
      2.78053790e-01 2.30491422e-02 2.78053790e-01 1.07038118e-01
      1.75574332e-01 2.78053790e-01 1.19490139e-01 2.78053790e-01
      1.32067502e-02 2.78053790e-01 5.16304094e-03 2.78053790e-01
      1.25206247e-01 2.50464022e-01 1.03338778e-01 7.28418902e-02
      1.99353009e-01 6.59877621e-03 3.19837898e-01 7.75232073e-03
      1.80339277e-01 6.60737902e-02 1.05771765e-01 1.44384146e-01
      4.57709916e-02 1.29734710e-01 4.39918425e-04 3.19837898e-01
      1.17074866e-02 3.04122418e-01 1.02641411e-01 1.64347127e-01
      1.97060674e-01 1.54220968e-01 3.19837898e-01 1.58617049e-02
      3.19837898e-01 5.90061722e-03 1.90628499e-01 8.55031312e-02
      1.66870087e-01 7.84036666e-02 5.87406084e-02 1.28292516e-01
      2.01346353e-03 3.19837898e-01 6.35880325e-03 1.90091789e-01
      7.28484392e-02 9.76179019e-02 1.52072117e-01 7.72997318e-03
      2.31310278e-02 0. 4.42476124e-01 1.40834898e-02 3.82733583e-01
      1.27902925e-01 1.83787912e-01 2.00362727e-02 0. 0. 0.
      1.42841801e-01 5.85740956e-04 4.37629707e-02 1.46248192e-02
      2.30642930e-02 1.11869372e-01 3.96543555e-03 1.18660955e-02 0.
      4.42476124e-01 1.16495900e-02 3.32686871e-01 1.11178212e-01
      1.45027533e-01 2.58865841e-02 0. 0. 0. 4.42476124e-01
      7.53095432e-04 7.10104257e-02 2.37304401e-02 3.25482301e-02 0. 0.
      0. 0. 0. 0. 0. 0. 0. 0. 0. 0. 0. 0. 0. 0. 0. 0. 0. 0. 0. 0. 0. 0.
      0. 0. 0. 0. 0. 0. 0. 0. 0. 0. 0. 0. 2.46079281e-01 4.42338735e-02
      1.40416086e-01 2.53198273e-03 1.87724143e-01 5.85385086e-03
      1.77483425e-01 5.89740649e-02 2.46079281e-01 2.46079281e-01
      7.62833580e-02 2.19664276e-01 7.90594239e-03 1.75023243e-01
      5.69136674e-03 2.46079281e-01 9.37694982e-02 2.46079281e-01
      2.46079281e-01 5.21062240e-02 1.53960302e-01 4.22108080e-03
      1.65749907e-01 1.44555625e-02 1.96318522e-01 6.53799847e-02
      2.46079281e-01 1.75683156e-01 1.11147411e-01 2.46079281e-01
      1.04523031e-02 2.46079281e-01 3.31934057e-02 2.46079281e-01
      1.44023165e-01 2.10616976e-01 1.39560521e-01 1.05949305e-01
      2.61476159e-01 9.55226831e-03 1.78551272e-01 3.23109655e-03
      2.06360370e-01 7.31393620e-02 1.31092891e-01 5.19978479e-02
      6.44901320e-02 1.45490959e-01 7.25478772e-03 3.03222984e-01
      7.91774248e-04 1.61909312e-01 5.68818972e-02 4.88285124e-02
      5.10905646e-02 1.63077787e-01 3.03222984e-01 9.40684509e-03
      3.03222984e-01 9.37626138e-03 3.03222984e-01 1.49895325e-01
      5.09387329e-02 5.15551083e-02 1.48459509e-01 3.03222984e-01
      2.02666633e-02 3.03222984e-01 0. 3.03222984e-01 1.27276540e-01
      3.89429852e-02 4.09037508e-02 2.49301568e-02 6.28793165e-02
      2.34938064e-03 4.49398756e-01 1.19618548e-03 9.28394198e-02
      3.10253259e-02 4.03347835e-02 7.21781328e-03 3.67996260e-03
      1.10118482e-02 4.94206361e-05 4.49398756e-01 7.97456960e-05
      1.08166132e-02 3.61472252e-03 7.08651217e-03 1.02978043e-01
      1.17554426e-01 3.57461870e-01 2.10419092e-02 4.49398756e-01 0.
      1.61707342e-01 5.40398024e-02 7.86736161e-02 2.98343319e-02
      2.05420535e-02 6.14696406e-02 7.41309545e-04 4.22160923e-01 0. 0.
      0. 2.42256206e-02 0. 0. 0. 0. 0. 0. 0. 0. 0. 0. 0. 0. 0. 0. 0. 0.
      0. 0. 0. 0. 0. 0. 0. 0. 0. 0. 0. 0. 0. 0. 0. 0. 0. 0. 0. 0.
      2.00653985e-01 5.51960059e-02 1.60433277e-01 7.54093693e-04
      1.70250207e-01 8.10955558e-03 1.73464030e-01 5.79799823e-02
      2.16600120e-01 1.28478408e-01 5.33208475e-02 1.24996543e-01
      2.27307761e-03 2.97275692e-01 2.59683542e-02 1.68407500e-01
      5.70855215e-02 1.44788951e-01 2.97275692e-01 8.64854008e-02
      2.39102602e-01 0. 1.51757926e-01 7.74136861e-04 2.76932538e-01
      9.25461128e-02 2.97275692e-01 2.97275692e-01 4.65803258e-02
      1.16529509e-01 7.07634841e-04 2.97275692e-01 3.77918221e-03
      1.01000302e-01 3.44576128e-02 2.97275692e-01 1.02622835e-02
      5.18518984e-02 1.29205093e-01 1.39324577e-03 4.69709367e-01
      8.48788023e-03 1.41437545e-01 4.78599668e-02 1.35275275e-02
      1.04399407e-02 4.46219854e-02 1.35893956e-01 6.93096453e-03
      4.69709367e-01 0. 1.11814573e-01 3.72986458e-02 8.18472449e-03
      5.54686077e-02 2.42682826e-02 5.88033013e-02 1.14438881e-03
      4.69709367e-01 3.28670931e-03 6.37608543e-02 2.54385956e-02
      5.54686077e-02 3.64770517e-02 3.41690145e-02 1.02295332e-01
      2.64089758e-04 4.69709367e-01 4.60580317e-03 7.20211789e-02
      4.19364758e-02 3.64770517e-02 6.67866096e-02 7.55604953e-02
      2.51530915e-01 1.78222228e-02 6.10335529e-01 0. 9.13465023e-02
      3.05264369e-02 5.33130728e-02 2.29312982e-02 1.37119042e-02
      4.10312377e-02 6.77552773e-04 2.47912124e-01 0. 0. 0.
      1.98220219e-02 5.14415838e-02 6.68422431e-02 2.00017333e-01 0.
      6.10335529e-01 5.45386039e-03 8.02870244e-02 6.33555800e-02
      5.14415838e-02 1.93534873e-03 2.09587533e-03 6.27165847e-03 0.
      1.96096942e-01 0. 0. 0. 1.93534873e-03 0. 0. 0. 0. 0. 0. 0. 0. 0.
      0. 0. 0. 0. 0. 0. 0. 0. 0. 0. 0. 0. 0. 0. 0. 0. 0. 0. 0. 0. 0. 0.
      0. 0. 0. 0. 0. 3.26802254e-01 6.78923875e-02 1.65342912e-01 0.
      1.31422862e-01 0. 2.83965588e-01 9.48964953e-02 3.26802254e-01
      3.26802254e-01 1.13813296e-01 2.22735792e-01 8.74297321e-03
      3.26802254e-01 5.24588209e-03 3.26802254e-01 1.42626211e-01
      3.26802254e-01 4.81824763e-02 0. 0. 0. 1.57257766e-02 0.
      1.34676686e-02 4.50066989e-03 4.81824763e-02 1.16026334e-01
      4.54606973e-02 1.02650166e-01 6.80009089e-03 1.94054872e-01
      4.08013072e-03 2.16338649e-01 7.01526105e-02 1.16026334e-01
      1.87104017e-01 1.09363750e-01 2.72821069e-01 1.02889501e-02
      3.36902887e-01 1.33010801e-02 3.36902887e-01 1.27216712e-01
      1.87104017e-01 2.03495309e-01 1.16056710e-01 3.36902887e-01
      2.37437338e-03 3.36902887e-01 1.81583259e-02 2.22008020e-01
      1.11590855e-01 2.03495309e-01 1.27284557e-01 6.23986460e-02
      1.79151848e-01 8.00251774e-03 1.81684673e-01 8.63712840e-03
      2.02080265e-01 6.84788376e-02 1.27284557e-01 1.22641876e-01
      4.19322811e-02 1.31754786e-01 1.84673467e-03 9.77021158e-02
      6.72113243e-03 6.93864748e-02 2.65689418e-02 1.22641876e-01
      3.43042016e-01 2.58126169e-01 4.72309798e-01 0. 4.72309798e-01
      2.67556254e-02 2.93264598e-01 1.88516214e-01 3.43042016e-01
      9.49446112e-03 6.23633293e-03 1.86614860e-02 0. 2.00243086e-01 0.
      0. 0. 9.49446112e-03 1.51132166e-01 4.76661250e-02 1.42635167e-01
      0. 1.17955402e-01 6.17437530e-03 4.22261879e-02 1.25677483e-02
      1.51132166e-01 2.19102949e-03 4.15755523e-04 1.24409911e-03 0.
      4.38205898e-03 0. 0. 0. 2.19102949e-03 0. 0. 0. 0. 0. 0. 0. 0. 0.
      0. 0. 0. 0. 0. 0. 0. 0. 0. 0. 0. 0. 0. 0. 0. 0. 0. 0. 0. 0. 0. 0.
      0. 0. 0. 0. 0.</_>
    <_>
      1.97626986e-02 2.75612921e-02 8.24736282e-02 0. 3.82727206e-01
      1.26457587e-02 1.01168500e-03 1.20161707e-02 3.36278640e-02
      1.03281379e-01 1.06214419e-01 3.17233115e-01 0. 3.82727206e-01
      6.53333142e-02 4.20183502e-02 4.91053015e-02 1.45040900e-01
      1.54132443e-02 1.35439355e-02 4.05285172e-02 0. 3.82727206e-01
      2.91825156e-03 1.85541268e-02 1.12750670e-02 2.13158708e-02
      2.07172677e-01 1.03400797e-01 3.09414029e-01 0. 3.82727206e-01
      1.26457587e-02 1.73034757e-01 6.86744526e-02 2.48265639e-01
      1.31063685e-01 6.25075772e-02 1.88074827e-01 1.62594690e-04
      2.45847017e-01 2.23794896e-02 1.79715082e-01 6.88061416e-02
      1.39793023e-01 2.45847017e-01 7.71486983e-02 2.22708777e-01
      6.76357700e-03 2.35179856e-01 3.08015174e-03 2.45847017e-01
      1.04066320e-01 2.22649336e-01 2.45847017e-01 5.99868558e-02
      1.88409865e-01 2.63861171e-03 2.45847017e-01 6.97790040e-03
      1.70804769e-01 5.83516508e-02 2.45847017e-01 2.45847017e-01
      7.22069591e-02 2.04423875e-01 8.78805108e-03 1.91434428e-01
      1.12812100e-02 2.45847017e-01 1.14629187e-01 2.45847017e-01
      2.26197869e-01 1.27957344e-01 2.63080209e-01 1.42734693e-02
      2.63080209e-01 5.12102852e-03 1.89654410e-01 7.91923776e-02
      1.85367793e-01 7.55121261e-02 7.60731101e-02 1.60278261e-01
      4.75157844e-03 2.63080209e-01 3.80884274e-03 1.36273503e-01
      5.77868149e-02 8.37273821e-02 1.93369210e-01 1.50616720e-01
      2.63080209e-01 1.19561972e-02 2.63080209e-01 6.26618741e-03
      2.63080209e-01 1.28391668e-01 1.85691714e-01 8.57242569e-02
      1.52257413e-01 2.63080209e-01 1.72199514e-02 2.63080209e-01
      5.37170796e-04 2.63080209e-01 1.28300548e-01 7.38287643e-02
      7.23834485e-02 6.93831081e-03 1.73539538e-02 3.81817226e-04
      4.57698673e-01 6.77474355e-03 1.93271413e-01 6.41936660e-02
      8.82487595e-02 2.60984004e-02 0. 0. 0. 4.57698673e-01
      1.56340213e-03 7.77410269e-02 2.59796977e-02 3.41698863e-02
      6.82862028e-02 7.72694275e-02 2.05313042e-01 1.15298172e-02
      4.57698673e-01 0. 1.77545846e-01 5.87443784e-02 5.36910444e-02
      2.00923756e-02 1.55597003e-02 4.81295995e-02 1.00708578e-03
      4.57698673e-01 0. 5.52609283e-03 1.84672361e-03 1.53501574e-02
      2.06115451e-02 1.07717514e-02 4.17442061e-02 0. 3.25963706e-01 0.
      4.66492586e-02 1.56938303e-02 2.06115451e-02 1.79975972e-01
      9.53245386e-02 3.01948518e-01 0. 3.25963706e-01 0. 2.26892710e-01
      7.63858780e-02 2.08463401e-01 3.06311958e-02 1.52162723e-02
      6.22342825e-02 0. 3.25963706e-01 0. 1.08184099e-01 3.61602642e-02
      3.06311958e-02 1.57232583e-01 1.30014956e-01 3.25963706e-01 0.
      3.25963706e-01 0. 3.25963706e-01 1.86370060e-01 1.59131736e-01
      2.04398960e-01 4.69065160e-02 1.43527836e-01 1.61996356e-03
      1.86370045e-01 6.29661512e-03 1.36992455e-01 4.57456075e-02
      2.47475401e-01 1.63207963e-01 6.68259189e-02 1.58979192e-01
      7.33876601e-03 2.58769542e-01 2.99473014e-02 2.58769542e-01
      9.78647098e-02 1.99682653e-01 2.47033805e-01 9.17176455e-02
      2.58769542e-01 6.80561134e-05 2.05210283e-01 2.42514908e-03
      2.58769542e-01 1.00932375e-01 2.52018213e-01 2.58769542e-01
      5.86048104e-02 1.55676991e-01 1.02084165e-03 2.58769542e-01
      2.14921776e-02 1.55894473e-01 5.24730012e-02 2.58769542e-01
      3.54201980e-02 9.36525539e-02 2.38159984e-01 5.11659170e-03
      3.98521572e-01 1.18416604e-02 2.71986544e-01 9.13485661e-02
      4.06592153e-02 2.62467060e-02 1.04740083e-01 2.85678089e-01
      1.11114644e-02 3.98521572e-01 0. 2.80414462e-01 9.33022127e-02
      2.06419379e-02 3.66055258e-02 3.01314257e-02 7.44326264e-02
      5.84959460e-04 3.98521572e-01 1.02597419e-02 7.57350177e-02
      2.57437993e-02 3.99645716e-02 2.55560945e-03 2.66026910e-02
      8.00201073e-02 2.76487577e-03 3.98521572e-01 0. 7.04110414e-02
      2.68367827e-02 1.90037675e-03 7.81328753e-02 1.13687880e-01
      3.36277843e-01 2.01929417e-02 4.70542282e-01 0. 2.05557227e-01
      6.83591366e-02 5.93073852e-02 3.80056649e-02 2.77578961e-02
      8.70605782e-02 2.56633060e-03 4.70542282e-01 0. 2.95089255e-03
      9.86136380e-04 2.98443791e-02 2.08647177e-02 3.81859690e-02
      1.26229241e-01 7.66808307e-03 4.70542282e-01 0. 5.70367426e-02
      2.66038924e-02 1.67212971e-02 1.33483503e-02 9.48482566e-03
      3.01996619e-02 1.16651389e-03 3.37584049e-01 0. 9.90184373e-04
      8.33781785e-04 1.14649767e-02 4.73667197e-02 1.53052658e-02
      5.66856228e-02 0. 1.54839844e-01 0. 1.31612793e-01 4.39827777e-02
      4.73667197e-02 3.57459098e-01 2.74224728e-01 3.68511826e-01 0.
      3.68511826e-01 0. 3.68511826e-01 3.68511826e-01 3.57459098e-01
      1.36604928e-03 0. 0. 0. 2.90830387e-03 0. 8.25688185e-04
      2.75931205e-04 1.36604928e-03 1.07311860e-01 2.77104825e-02
      6.79579452e-02 0. 1.12329230e-01 0. 1.64674401e-01 5.50314151e-02
      1.07311860e-01 2.79805273e-01 1.05891682e-01 2.79805273e-01 0.
      1.45213574e-01 1.37242198e-04 2.79805273e-01 1.26049310e-01
      2.79805273e-01 2.79805273e-01 7.35772103e-02 1.85283259e-01
      8.46549345e-04 2.79805273e-01 2.52002361e-03 1.84535980e-01
      6.08724840e-02 2.79805273e-01 1.54012039e-01 1.64966919e-02
      3.62751111e-02 0. 4.01052684e-02 0. 8.08987021e-02 2.70349793e-02
      1.54012039e-01 2.73391515e-01 4.09079045e-02 7.63953701e-02
      3.66838067e-03 2.56373644e-01 1.99935935e-03 1.97266683e-01
      6.24725930e-02 2.73391515e-01 1.08979084e-01 3.65512297e-02
      8.35701972e-02 1.89939374e-03 3.94003302e-01 3.12791206e-03
      9.53614861e-02 3.67385000e-02 1.08979084e-01 5.78592382e-02
      4.56131920e-02 1.32731989e-01 8.63360707e-04 3.94003302e-01
      7.18506705e-03 1.06383368e-01 5.39286993e-02 5.78592382e-02
      1.34372979e-01 7.03633502e-02 1.74709514e-01 8.23070575e-03
      3.94003302e-01 7.89814256e-03 2.45394543e-01 8.70534703e-02
      1.34372979e-01 1.61033168e-01 8.06948766e-02 2.42709830e-01
      3.74122988e-03 3.94003302e-01 1.32836560e-02 1.71639711e-01
      7.38959536e-02 1.61033168e-01 9.14615169e-02 9.57944915e-02
      2.86653340e-01 0. 4.84577239e-01 1.07916128e-02 1.37578055e-01
      9.21694338e-02 9.14615169e-02 8.78674630e-03 9.42467432e-03
      2.82022208e-02 0. 3.94734442e-01 0. 2.47306982e-03 4.84851142e-03
      8.78674630e-03 1.94032267e-01 1.10300727e-01 3.30061644e-01 0.
      4.84577239e-01 1.38749294e-02 1.39237657e-01 7.93804750e-02
      1.94032267e-01 1.12972455e-02 8.17719288e-03 2.44692788e-02 0.
      9.90262404e-02 0. 1.92349870e-03 3.77106480e-03 1.12972455e-02 0.
      0. 0. 0. 0. 0. 0. 0. 0. 7.04615593e-01 0. 0. 0. 0. 0. 0. 0.
      7.04615593e-01 0. 0. 0. 0. 0. 0. 0. 0. 0. 0. 0. 0. 0. 0. 0. 0. 0.
      0. 2.06257120e-01 0. 0. 0. 1.84715707e-02 0. 1.00248447e-02
      3.35013517e-03 2.06257120e-01 3.89528364e-01 1.85474217e-01
      3.89528364e-01 3.13942470e-02 3.89528364e-01 1.71106514e-02
      3.89528364e-01 3.40056300e-01 3.89528364e-01 0. 0. 0. 0. 0. 0. 0.
      0. 0. 1.72123443e-02 0. 0. 0. 0. 0. 0. 0. 1.72123443e-02
      2.98587888e-01 1.68086037e-01 2.98587888e-01 2.37344559e-02
      2.98587888e-01 2.18602642e-02 2.98587888e-01 2.02037618e-01
      2.98587888e-01 2.98587888e-01 1.52854785e-01 2.98587888e-01
      1.07883876e-02 2.98587888e-01 2.45774817e-02 2.98587888e-01
      1.02814339e-01 2.98587888e-01 1.59906447e-02 0. 0. 0. 0. 0. 0. 0.
      1.59906447e-02 9.71479341e-03 0. 0. 0. 0. 0. 0. 0. 9.71479341e-03
      4.53307837e-01 3.05336833e-01 4.53307837e-01 0. 4.53307837e-01
      4.48413529e-02 2.63922453e-01 6.34095445e-02 4.53307837e-01
      3.65107320e-02 6.92803878e-03 2.07313336e-02 0. 3.81990932e-02 0.
      0. 0. 3.65107320e-02 0. 0. 0. 0. 0. 0. 0. 0. 0. 0. 0. 0. 0. 0. 0.
      0. 0. 0.</_>
    <_>
      2.79009640e-01 1.14396185e-01 2.79612929e-01 1.33266777e-01
      2.79612929e-01 2.38437150e-02 6.01967014e-02 1.10012218e-02
      7.48312175e-02 1.96216032e-01 8.23990181e-02 2.79612929e-01
      9.07645300e-02 2.79612929e-01 2.57047880e-02 1.11310773e-01
      1.81686301e-02 1.01903029e-01 2.79612929e-01 1.34275019e-01
      2.79612929e-01 1.54682606e-01 2.79612929e-01 0. 0. 0.
      5.95134422e-02 1.49723023e-01 1.15465127e-01 2.79612929e-01
      4.48080674e-02 2.79612929e-01 0. 8.13686252e-02 1.92648266e-02
      8.60723555e-02 5.27090356e-02 3.90852131e-02 1.23340897e-01
      6.64868904e-03 2.12929994e-01 2.57915421e-03 4.12899554e-02
      1.39407115e-02 5.01499437e-02 1.42071515e-01 9.37640667e-02
      2.80270427e-01 1.62782817e-04 3.36102724e-01 1.08597480e-04
      1.30967081e-01 4.75666933e-02 1.47234842e-01 8.82170126e-02
      1.00186311e-01 3.00980419e-01 2.23701238e-03 3.36102724e-01 0.
      1.57747313e-01 5.22717685e-02 8.67688805e-02 1.38800994e-01
      1.22842744e-01 3.36102724e-01 1.80327406e-05 3.36102724e-01 0.
      3.36102724e-01 1.32381916e-01 1.35767385e-01 1.96903750e-01
      4.92032021e-02 1.54209629e-01 0. 2.74351925e-01 6.56936504e-03
      1.42203271e-01 4.81951609e-02 2.42964521e-01 1.90244675e-01
      6.68937489e-02 2.03335911e-01 0. 2.74351925e-01 1.45748453e-02
      2.74351925e-01 1.13887645e-01 2.57763892e-01 1.26692429e-01
      6.37105182e-02 1.86640128e-01 6.09072950e-03 2.74351925e-01
      2.41427077e-03 2.59195358e-01 8.97643864e-02 9.93461534e-02
      1.45501465e-01 1.21779099e-01 2.74351925e-01 1.33996047e-02
      2.74351925e-01 5.31954551e-03 2.03552872e-01 8.17055702e-02
      1.14011839e-01 1.66151345e-01 6.27850741e-02 1.79387897e-01
      1.60208088e-04 3.33292395e-01 4.88551380e-03 2.89749026e-01
      9.82060060e-02 1.81491166e-01 8.89953524e-02 2.35536173e-02
      6.50196895e-02 3.78276152e-03 3.33292395e-01 1.30058937e-02
      1.44416124e-01 5.05172722e-02 9.21629518e-02 1.14964478e-01
      1.00584008e-01 2.52530128e-01 3.18172551e-03 3.33292395e-01
      5.01859235e-03 2.59306759e-01 9.47447047e-02 1.12776399e-01
      1.40072539e-01 2.83931699e-02 6.97680786e-02 1.28989192e-02
      3.33292395e-01 1.59065854e-02 2.99510300e-01 1.23269677e-01
      1.02787487e-01 8.93597603e-02 3.82815115e-02 1.61130026e-01
      8.62068236e-02 1.98263779e-01 0. 0. 0. 2.79931277e-02
      8.31760839e-02 1.08001925e-01 3.23223293e-01 7.75600690e-03
      5.91582060e-01 0. 1.27480626e-01 3.17413770e-02 7.79333413e-02
      1.64547022e-02 6.31767837e-03 3.04373316e-02 4.05160300e-02
      1.09616518e-01 0. 0. 0. 9.54471994e-03 5.61201014e-02
      5.43154478e-02 1.62542000e-01 2.00211699e-03 5.91582060e-01 0.
      1.14261657e-01 3.24682593e-02 5.61201014e-02 6.62811026e-02
      7.18496367e-02 2.14852601e-01 7.20244279e-05 3.09321612e-01 0.
      1.09217964e-01 3.42157297e-02 6.62134066e-02 1.65130958e-01
      7.24030361e-02 2.18060598e-01 2.01421790e-04 3.09321612e-01 0.
      2.65785366e-01 9.02087912e-02 1.60574839e-01 1.16413094e-01
      6.23502806e-02 1.86575457e-01 0. 3.09321612e-01 0. 1.26128033e-01
      3.98102030e-02 1.32678851e-01 3.09321612e-01 6.32709414e-02
      2.01043904e-01 3.54070170e-03 2.83521920e-01 4.67905356e-03
      2.09019825e-01 6.93373308e-02 3.09321612e-01 2.33720914e-01
      6.70953020e-02 2.00052500e-01 5.70237404e-03 2.22301170e-01
      2.15031253e-03 2.38804534e-01 9.62760821e-02 1.93975165e-01
      1.97889358e-01 1.28960341e-01 2.38804534e-01 1.34287924e-02
      2.38804534e-01 4.73068701e-03 1.77484512e-01 7.71645382e-02
      1.66491866e-01 2.38804534e-01 6.09037243e-02 1.76668182e-01
      7.80932512e-03 1.63515210e-01 1.01481844e-02 2.38804534e-01
      9.96358246e-02 2.38804534e-01 1.70452192e-01 1.53783694e-01
      2.38804534e-01 1.21050626e-02 2.38804534e-01 5.39650302e-03
      2.38804534e-01 1.27494767e-01 1.63751513e-01 7.92330876e-02
      8.38029012e-02 1.75551876e-01 5.22135943e-03 3.54834914e-01
      3.58723104e-03 1.34369537e-01 5.86919710e-02 8.33753124e-02
      1.07670426e-01 6.88133715e-03 1.37514407e-02 3.92871499e-02
      3.54834914e-01 2.99787764e-02 1.53938279e-01 7.40238577e-02
      9.31351930e-02 8.49578902e-02 1.50411695e-01 3.54834914e-01
      1.67173073e-02 3.54834914e-01 5.98856481e-04 3.54834914e-01
      1.24218501e-01 7.27836266e-02 1.03384107e-01 5.74286133e-02
      1.44884616e-01 5.70323057e-02 3.54834914e-01 4.52320240e-02
      1.16564199e-01 4.13651466e-02 9.92518812e-02 1.25582365e-03
      9.10966133e-04 6.17684145e-03 1.39774168e-02 8.05660710e-02
      5.20403089e-04 1.17377072e-04 1.38018258e-05 1.25582365e-03
      8.46377537e-02 5.50774932e-02 1.62435383e-01 1.81877680e-04
      5.44189751e-01 0. 1.88572213e-01 6.37243539e-02 8.46377537e-02
      1.20443245e-03 1.22085199e-04 6.24504813e-04 2.34848727e-03
      4.79433425e-02 9.03855823e-03 3.44782299e-03 5.54824772e-04
      1.20443245e-03 1.29507512e-01 7.73246288e-02 2.26392657e-01 0.
      5.44189751e-01 5.03196461e-05 4.43840504e-01 1.48367122e-01
      1.29507512e-01 9.59946886e-02 5.62782809e-02 1.67565584e-01 0.
      2.65363902e-01 0. 1.34126052e-01 4.51225340e-02 1.11479752e-01
      2.63151199e-01 5.39667197e-02 1.64991647e-01 2.55977781e-03
      2.04901323e-01 1.01104295e-02 1.70799777e-01 5.70404716e-02
      2.65363902e-01 8.70653465e-02 8.11883360e-02 2.41830125e-01 0.
      2.65363902e-01 0. 2.65363902e-01 1.15125507e-01 8.80976841e-02
      2.65363902e-01 1.11287624e-01 2.65363902e-01 1.88124206e-04
      2.57669061e-01 5.02026128e-03 2.65363902e-01 1.21305726e-01
      2.65363902e-01 1.44027129e-01 4.95282151e-02 1.18734092e-01
      5.61125204e-03 2.51764894e-01 2.27859970e-02 2.19753265e-01
      7.38501176e-02 1.74145266e-01 3.87182645e-02 1.20580122e-01
      3.08573812e-01 6.26529288e-03 3.58429670e-01 1.25805959e-02
      3.44224304e-01 1.15513355e-01 4.40550819e-02 2.39553243e-01
      4.77311686e-02 1.30935833e-01 7.24512211e-04 3.58429670e-01
      1.56069258e-02 1.31971762e-01 4.43863943e-02 2.48697281e-01
      3.43981907e-02 3.65146361e-02 9.11383331e-02 6.48172107e-04
      3.58429670e-01 1.09521421e-02 9.36483890e-02 3.17878537e-02
      3.81994098e-02 2.52206735e-02 1.13373093e-01 3.06718826e-01
      1.14857852e-02 4.17400748e-01 3.22396081e-05 3.02562475e-01
      1.00687511e-01 1.99289098e-02 7.26022199e-02 6.80232272e-02
      1.87386453e-01 2.18592864e-02 4.17400748e-01 1.26236975e-02
      1.04959987e-01 3.77109945e-02 6.95588291e-02 1.77841960e-03
      2.83591971e-02 8.33175778e-02 3.05433967e-03 4.17400748e-01
      1.39704978e-04 7.44278505e-02 2.87841316e-02 1.42144435e-03
      4.29445580e-02 2.69185100e-02 7.69693926e-02 6.68141292e-03
      4.17400748e-01 3.21641052e-03 3.50476317e-02 1.93176158e-02
      4.42164093e-02 2.05976143e-02 0. 0. 0. 7.86371157e-02
      1.17601968e-01 6.77275136e-02 1.20191621e-02 3.47234011e-02
      2.63515562e-01 1.06173031e-01 3.11243981e-01 0. 3.30614775e-01
      3.60000529e-03 3.30614775e-01 2.61019468e-01 2.63515562e-01
      1.13228321e-01 0. 0. 0. 3.30614775e-01 3.30614775e-01
      3.30614775e-01 1.44884661e-01 2.52211750e-01 1.66116990e-02 0. 0.
      0. 6.83957934e-02 2.04103142e-02 4.74801175e-02 4.77391295e-02
      3.59582603e-02 1.03468031e-01 8.46671611e-02 2.53840387e-01 0.
      2.22118944e-01 0. 3.04148197e-01 1.40285000e-01 1.03468031e-01
      3.04148197e-01 1.67079613e-01 3.04148197e-01 0. 2.62883604e-01
      5.07067831e-04 3.04148197e-01 2.11854935e-01 3.04148197e-01
      2.88079865e-02 7.24786194e-03 2.20440142e-02 0. 3.92116047e-02 0.
      5.42865358e-02 1.84023008e-02 2.89607253e-02 3.04148197e-01
      2.30354313e-02 7.10412040e-02 0. 8.04556385e-02 0. 1.54101431e-01
      5.14981002e-02 3.04148197e-01 3.35364074e-01 5.17984070e-02
      1.31738231e-01 1.15001039e-03 3.35364074e-01 1.37179473e-03
      1.41502663e-01 4.68902066e-02 3.35364074e-01 1.06642112e-01
      4.90316451e-02 8.65404382e-02 6.10789703e-03 3.35364074e-01
      4.22938121e-03 1.11651450e-01 4.13817279e-02 1.07408918e-01
      2.11144477e-01 2.93721501e-02 3.94313559e-02 4.98337811e-03
      1.64906248e-01 7.96119915e-04 1.37075841e-01 4.43976521e-02
      2.12441266e-01 1.63338512e-01 1.10264964e-01 1.92212984e-01
      3.84624302e-02 3.35364074e-01 9.88174416e-03 2.96439946e-01
      1.01775587e-01 1.71165973e-01 6.84478208e-02 4.60676774e-02
      1.30294517e-01 3.87778948e-03 3.82997394e-01 1.43937813e-02
      1.04896322e-01 5.83966002e-02 7.01574534e-02 1.13648973e-01
      3.67606394e-02 1.27767637e-01 2.77133542e-03 3.82997394e-01
      1.34407673e-02 5.84616549e-02 4.26434055e-02 1.08861908e-01
      2.25986108e-01 1.00573324e-01 2.45328337e-01 3.06830928e-02
      3.82997394e-01 2.68569440e-02 1.93927869e-01 8.74927491e-02
      2.49958858e-01 2.21903399e-01 4.02029566e-02 1.39411211e-01
      5.49540482e-03 3.13113034e-01 2.93843392e-02 8.18983391e-02
      4.15115319e-02 2.37636164e-01</_>
    <_>
      0. 0. 0. 0. 0. 0. 0. 0. 0. 0. 0. 0. 0. 0. 0. 0. 0. 0. 0. 0. 0. 0.
      0. 0. 0. 0. 0. 0. 0. 0. 0. 0. 0. 0. 0. 0. 0. 0. 0. 0.
      1.44356885e-03 0. 0. 0. 0. 1.03354163e-01 3.92876044e-02
      1.17563084e-01 0. 9.47299451e-02 4.93319519e-03 2.53786091e-02
      3.12463790e-02 1.03354163e-01 1.38380388e-02 7.04385526e-03
      2.10778192e-02 0. 7.43326917e-02 0. 0. 0. 1.38380388e-02
      3.81403953e-01 2.95992106e-01 4.83103514e-01 0. 4.83103514e-01
      7.39979297e-02 2.68862128e-01 1.35400981e-01 3.81403953e-01
      1.34289935e-01 1.90360397e-02 5.44263944e-02 0. 2.95726638e-02
      1.80014293e-03 1.43498220e-02 1.96700022e-02 1.36967227e-01
      2.07759097e-01 2.28398368e-02 3.59279178e-02 6.22982043e-04
      3.23882625e-02 4.15417628e-04 6.02212287e-02 2.72925161e-02
      2.15667561e-01 2.97303349e-01 1.05754264e-01 2.97303349e-01 0.
      2.97303349e-01 2.86278371e-02 1.25890389e-01 8.71511772e-02
      2.97303349e-01 2.97303349e-01 1.30513072e-01 2.58820951e-01
      1.12728728e-02 2.97303349e-01 3.06166708e-02 2.97303349e-01
      1.75733492e-01 2.97303349e-01 1.16644256e-01 2.08248440e-02
      2.57159509e-02 1.30688550e-03 6.04832508e-02 0. 8.90356302e-02
      2.97541544e-02 1.21591002e-01 3.52615956e-03 0. 7.87405705e-04
      8.71256998e-05 7.37553788e-03 0. 4.13354160e-03 1.38135697e-03
      3.52615956e-03 3.15982431e-01 1.97840631e-01 3.15982431e-01
      3.05982921e-02 3.15982431e-01 4.45163622e-02 3.15982431e-01
      3.11228722e-01 3.15982431e-01 2.54564852e-01 3.04674860e-02
